1962 100
cda 0.059625857 -0.15353799 -0.16111417 0.092218876 0.10983474 -0.053066112 -0.1435968 0.06309901 -0.00981615 -0.02406535 0.1278503 0.038035993 0.05016274 0.118234895 0.00630199 0.13487075 0.11614578 -0.13768415 -0.15356618 0.11047617 0.14700066 -0.11964074 0.04540946 -0.09827851 -0.091184385 0.047231883 0.12431858 -0.11999142 -0.09144007 -0.09659333 0.14669919 -0.060455106 0.11170512 -0.11591225 0.09305438 -0.0714496 -0.05274568 -0.032045122 -0.11218268 -0.12970653 0.13444208 -0.055337653 -0.06563023 0.050674375 -0.008158086 -0.13596754 0.060010344 0.13870808 -0.036066595 0.127725 0.14016144 -0.16895472 -0.15501201 0.0026422383 -0.0640215 -0.11602203 0.07411208 0.06696838 0.013507502 0.09787838 -0.009898802 -0.019906027 0.13567743 -0.019684201 0.034656283 0.05765177 0.03500111 0.03684795 0.018214645 -0.07957053 -0.08435461 -0.16403376 0.05032454 0.12651181 -0.07422668 -0.012267766 0.048974603 0.10875437 -0.023803137 -0.007981494 -0.0066784434 0.026262809 0.0991419 0.021089401 -0.07782542 -0.043301746 0.04208645 0.13607763 -0.10566888 0.103501864 0.013388458 0.12908329 -0.15065144 0.07350869 0.13008198 0.081213094 -0.121242486 0.14633398 -0.12257591 0.015634207
offensief 0.03089171 -0.030166106 -0.033363067 0.02112615 0.031478263 0.0063325865 -0.024547046 0.029931419 -0.018150924 -0.02477494 0.01936571 0.03052583 0.018857498 0.019322844 -0.036589697 0.017910121 0.018680008 -0.03560841 -0.026944062 0.027072465 0.026215717 -0.0054570343 -0.020684427 0.007475578 -0.020301484 0.03130817 0.029158456 -0.024494879 -0.01866861 -0.025661297 0.028566916 -0.022651484 0.011047561 -0.0032467474 0.018211655 -0.03506571 0.020620238 0.02771405 -0.03207402 -0.02467984 0.016751096 0.034814447 -0.00017450615 0.028112968 0.016772272 0.036461603 -0.0280604 0.029051231 -0.034255672 0.021162163 0.02267362 -0.008370314 0.0017739 -0.004897921 0.028298078 -0.03327138 -0.023133604 -0.021144483 -0.0200526 0.035898592 -0.03418485 -0.024338821 -0.02957349 0.0010530378 0.022345604 0.018260611 0.03314285 0.03006725 0.026461756 -0.022702487 0.019770846 -0.02926054 0.022413332 -0.03679092 0.024662111 0.028267177 0.033383228 -0.030250965 -0.0210053 -0.02525294 0.022175824 -0.027174149 0.034035157 -0.025218284 -0.020981561 0.027481308 -0.03139524 0.03217863 -0.032180887 0.00054667034 0.010554208 0.014544396 0.010552128 0.033588212 0.023382641 0.024782933 -0.036068257 0.033573188 -0.030826107 0.028413882
tegen 0.036203727 -0.012806527 -0.0436898 0.0021571724 -0.011062242 -0.13269766 0.14962186 0.09765381 -0.16332622 0.12775786 0.13153525 0.16196677 -0.08015841 -0.1390768 -0.15113449 0.13217579 -0.062311076 -0.037863523 0.11716668 0.08428505 0.14972752 -0.13051052 -0.14871083 -0.13477997 0.011220198 -0.070989676 -0.114860766 -0.06417263 -0.10592948 0.10172401 -0.15252055 -0.087084815 -0.08272282 0.1547521 0.087844856 -0.065645516 0.024636362 -0.09732279 0.11021066 0.00017673972 0.053615373 0.12245744 0.03202072 -0.113060385 -0.112937726 0.12207986 -0.07609515 -0.023775356 -0.12485548 0.023494411 0.130817 0.109458335 0.11860894 0.08029869 0.14244716 0.050885573 -0.024569644 -0.14398229 -0.08238295 0.04523405 -0.08389625 -0.05578617 -0.15084258 0.10278858 0.123155355 -0.048453577 -0.0041205273 0.10716217 0.021975832 -0.10307628 0.11333101 0.013078808 -0.13395952 0.054556057 0.14632738 0.099396355 0.11902217 0.030110635 -0.096839435 -0.113258995 0.10131009 0.059364982 -0.063112006 -0.13921416 -0.06814545 -0.102013044 0.08904018 0.10423246 -0.1218327 -0.1659122 0.14786099 -0.03480297 0.06029533 -0.11273581 -0.1514485 0.0890965 -0.12197888 -0.006629528 0.13797313 -0.02745378
zware 0.08942592 0.016348356 -0.066623285 0.11503998 0.111388564 0.08454357 -0.109667 -0.09178854 -0.1394636 -0.14692298 -0.03469977 -0.044907577 -0.08850142 -0.06654683 0.030374594 -0.024319438 -0.016871406 0.1054756 -0.0606872 0.022517396 0.04373822 0.13757086 0.0068214396 0.039518803 -0.0053383773 0.12488228 0.010304443 0.025526633 -0.041406777 -0.09878086 -0.051927228 0.061583012 -0.047270592 0.0895771 0.06651412 0.1361844 0.0333646 -0.10147626 0.07755156 -0.09400445 0.06097394 -0.09011233 0.06055574 0.10842209 -0.049725663 0.09217586 -0.031566396 0.08949882 -0.001072627 0.13043298 0.029778976 -0.10061739 0.04192805 -0.03953622 0.053421635 -0.11244944 -0.12314641 -0.011558274 -0.05877154 0.0120065035 -0.12705173 -0.074875295 -0.08898373 -0.04334956 0.025146928 0.062643185 0.102492526 -0.004605731 -0.055035427 -0.070629425 0.13181634 -0.06319851 0.12283442 -0.000750705 -0.09916465 -0.038974486 0.10642873 -0.10750832 -0.0112660155 -0.03485491 -0.03097804 -0.12443604 0.11841927 -0.11149828 -0.13684349 0.11998387 -0.02800892 0.08594621 -0.0034347097 0.101543084 0.089908004 -0.025184937 0.102032304 0.07598645 -0.057898566 0.10623361 0.015090154 -0.01891029 0.14012733 -0.0005885337
criminaliteit 0.09053304 -0.01161273 -0.09786061 0.07294038 0.03521051 0.121362075 -0.069218785 0.019255448 -0.011802383 -0.12890276 -0.007223823 0.044369735 -0.02295532 -0.006100691 0.03745518 -0.054024037 0.04272516 -0.0026788143 -0.04349899 0.09063478 0.082013525 0.00576326 -0.09649548 -0.018684251 0.03927369 0.08527787 0.057387445 0.045734424 -0.071356684 -0.13500175 0.019903444 0.07786474 0.058823373 0.052385516 0.052193698 0.009331849 -0.017698659 0.0580924 0.008699364 -0.0804161 0.06642134 -0.014329249 -0.017967375 0.040557243 0.082603015 -0.046913657 0.013009496 0.14532606 -0.02178523 0.06006167 0.08018156 -0.02608085 -0.10592825 -0.07184212 0.11230245 -0.06923974 0.08497931 0.0693974 -0.0052910643 0.06474338 -0.09368501 -0.037384525 -0.037172597 -0.094385 0.08895101 -0.0029155798 -0.05093407 0.017817225 0.06531822 -0.10800938 0.062435243 -0.06620658 0.08399859 0.015425799 -0.07191903 0.043109275 0.024492366 0.010374044 -0.02459066 -0.054468792 0.049212374 -0.064247444 0.0020795204 0.007986613 -0.043651454 0.101846896 -0.11037361 -0.01236813 -0.12074945 -0.054993447 0.093996055 -0.0010162094 -0.07823498 0.023555065 0.008377583 0.07961692 -0.01373031 -0.013317599 0.018892799 0.068903066
straf 0.09677869 -0.024678612 -0.07461836 0.046625342 0.057136405 0.06690457 -0.039116982 -0.012775707 -0.048827503 -0.08041048 0.06501151 0.04708063 -0.013652839 0.025787288 -0.095609665 -0.07920137 0.05654023 -0.011862182 -0.03766636 0.08546729 0.09390842 0.07587133 -0.08732764 -0.052401572 0.017364189 0.042702552 0.07731694 -0.027787296 -0.0907808 -0.085905865 0.066260085 -0.04838507 0.050764307 0.04567404 0.045361985 0.024302384 0.0732048 0.056375854 -0.020918211 -0.08322999 0.10031341 0.011200838 0.055268783 0.0602058 0.09903718 0.065406345 -0.09119044 0.08541984 -0.0669943 0.05069708 0.07435901 0.06375588 -0.072027355 -0.06411322 0.04353827 -0.07419025 -0.071471885 0.03771567 0.022857705 0.08639377 -0.09678127 -0.096355304 -0.09722446 0.017820254 0.098889194 -0.014831093 -0.07367242 0.07507506 0.030054323 -0.08718324 0.075325355 -0.057979833 0.032754567 -0.088452935 -0.011199692 0.0992044 0.0740725 0.03593858 -0.024919702 -0.09552367 0.07718246 -0.078660004 0.071582235 -0.076307096 -0.09549269 0.03380519 -0.064794235 0.042603336 -0.08469649 -0.05675369 0.020194864 0.014406382 -0.020136952 0.103375435 0.03477432 0.07373998 -0.05617619 0.038110312 0.022548547 0.08162579
criminelen 0.1372532 -0.020838104 -0.13218832 0.021039931 0.1050356 0.10965403 -0.03148278 0.004752267 -0.07922899 -0.09498043 0.11848958 0.06675915 -0.032765266 -0.052639376 -0.1148794 -0.09061344 0.11009928 -0.038895756 -0.120862976 0.08111057 0.12439846 0.040290352 -0.11141253 -0.08516459 0.01849572 0.034420002 0.091729365 -0.036063813 -0.14509037 -0.11245754 0.061583996 0.016654858 0.015690394 -0.022223651 0.07257572 -0.024097499 0.067580715 0.06887997 -0.07262175 -0.11566405 0.1142943 -0.059328794 0.054720562 0.0681806 0.1260585 -0.032342687 -0.09585263 0.123581976 -0.09565022 0.06863023 0.10126782 -0.005550129 -0.12629181 -0.078342885 0.03617431 -0.13014196 -0.033386048 0.022434343 0.0040695746 0.13554193 -0.14150348 -0.08625278 -0.12223926 -0.024483066 0.08709009 0.0059292037 -0.04484576 0.092114754 0.10028107 -0.14141282 0.11130433 -0.091130644 0.09337683 -0.07416925 -0.056174614 0.11334604 0.072062664 0.028294325 0.11003156 -0.11733052 0.032238383 -0.07606436 0.07554565 -0.058092117 -0.11780684 0.06985278 -0.09077139 0.037112035 -0.12944181 0.033993978 0.06651876 0.0711837 -0.05994332 0.122118555 0.058241293 0.11570917 -0.088531815 0.09014046 -0.024692133 0.115016155
zwaarder 0.1085605 -0.031485632 -0.10411622 -0.05085137 0.07694696 0.13028444 0.010447484 0.034951966 -0.04120721 -0.00826124 0.12218419 -0.02436172 -0.07942457 -0.041890714 -0.13606296 -0.121058695 0.054016955 -0.018543785 -0.050418846 0.13439666 0.12761521 0.14034952 -0.12974936 -0.078476235 0.0197227 -0.0321563 0.10912145 -0.05142937 -0.14450192 -0.1343128 0.09090274 0.0033323483 0.086736836 0.12254453 0.013393737 0.0670902 0.10891748 0.09401461 -0.051384743 -0.13256654 0.14095952 -0.04212133 0.07601767 0.08427183 0.121723354 0.13236456 -0.119481705 0.11724114 -0.06731238 0.06607988 0.102609485 0.07621033 -0.10066907 -0.094345964 0.091092125 -0.09793545 -0.102777064 0.087279856 0.029135985 0.1349477 -0.13195463 -0.11157427 -0.13346247 -0.01191726 0.12823921 -0.041914843 0.026703889 0.116081946 0.035278983 -0.13522893 0.12933983 -0.07718292 0.02882798 -0.11851542 0.014413078 0.11493612 0.07474097 0.03355945 0.025773939 -0.13870676 0.12164631 -0.12614068 0.10122888 -0.08440863 -0.09790585 0.047488935 -0.080383696 0.052894857 -0.12238303 -0.06878949 0.065088384 0.07481624 0.020563975 0.12727602 0.015673513 0.06231757 -0.06668792 0.08762216 0.099303484 0.11990663
en -0.06783517 0.16764386 0.14022674 0.11088643 0.04683878 0.049584135 0.16474862 -0.1345869 -0.123667605 -0.09570125 0.018327354 0.12091315 0.09606374 0.107447445 0.03510438 -0.029069688 0.15332581 -0.0470618 0.029032469 0.15251316 -0.09892746 -0.098692894 -0.15076116 0.06501557 0.14636244 0.00073839456 -0.063595414 -0.13386376 -0.07445798 -0.17323299 0.120277524 0.01316032 -0.13243409 0.07554129 0.019429233 -0.0963611 -0.0884397 -0.14131258 -0.15503384 0.1282534 -0.10944167 0.13473544 -0.08005772 -0.11405063 0.019018201 0.12723336 0.03520108 -0.043420244 0.035567753 -0.07977447 -0.14388634 0.16544311 0.11054033 0.112364195 -0.16219537 -0.16625835 0.016490309 -0.053788684 -0.08805521 -0.12383114 0.036949296 0.095148504 -0.014835452 0.13673757 -0.04130775 0.13259298 -0.14437102 -0.046278596 -0.13437083 -0.064751856 0.18680187 -0.15773824 0.005625523 -0.151567 0.16419047 0.12205494 0.10875101 -0.14215563 0.013727392 -0.09780328 -0.08594511 0.095794 0.16054052 0.04254934 0.033890165 -0.13130854 0.10863449 0.10675905 -0.1461404 -0.13608195 -0.10320047 0.109266914 0.13130133 -0.045638315 -0.09657659 0.17736524 -0.15887952 -0.11434046 -0.044195194 -0.08881089
bevries 0.08476342 -0.06726464 -0.078270584 0.027158123 0.04812496 0.0663207 -0.0532767 0.014415185 -0.041000858 -0.077480584 0.08187495 0.0010965597 -0.026724432 -0.021315863 -0.08467102 -0.03702354 0.029004283 -0.0076765283 -0.046471566 0.07467397 0.105285294 0.10214119 -0.05018524 -0.04768892 -0.03891623 0.030427238 0.09706431 -0.013405274 -0.07768348 -0.055294883 0.062456105 0.018818969 0.060729224 0.06365015 0.03251675 0.017029483 0.056066856 0.025353685 -0.012957053 -0.08368715 0.105213135 -0.016379585 0.012153994 0.05288256 0.083732374 0.08587967 -0.06116488 0.07765698 -0.021049798 0.085738614 0.06520583 0.0023960804 -0.08558992 -0.02328529 0.10403472 -0.06510799 -0.067421116 0.018940695 -0.0061942306 0.08862629 -0.085992 -0.10338184 -0.07340613 0.030009957 0.06815432 -0.008969589 -0.031820558 0.067040004 -0.021860506 -0.061834466 0.08991449 -0.06549678 0.029196473 -0.06255058 -0.050685436 0.07558997 0.10325072 0.02053024 -0.015197553 -0.08822647 0.08382331 -0.07816275 0.08716375 -0.022696968 -0.06731088 0.042332698 0.029634992 0.064811915 -0.04689994 0.040250476 0.039534837 0.034435336 0.0052329563 0.09792061 0.012009782 0.07349779 -0.0365241 0.04742576 0.030975487 0.06622548
hun -0.02204878 -0.078360595 -0.098120466 0.09365727 0.084040105 -0.0028838674 -0.07271082 -0.11325764 -0.11517523 -0.13490698 0.017162604 0.08064664 0.02454716 0.040924933 0.024394289 -0.027946591 0.07996141 0.08778999 -0.106335916 0.012859303 -0.048216254 0.11140984 -0.012595438 -0.0008406182 -0.08602821 0.052475978 0.06875924 -0.07845655 -0.12764677 0.11402378 0.055409502 -0.08698774 -0.06151096 0.05093504 0.12554307 -0.084249176 -0.027026657 -0.029823394 -0.0730665 0.058120575 0.11373837 0.015455193 -0.09503657 -0.11848286 -0.08739175 0.0890971 -0.1269359 0.07766258 0.10010485 -0.0077092657 0.037235796 0.009892545 0.056604628 -0.013597916 0.13351586 -0.06596273 -0.13336052 -0.08977066 -0.09359379 0.14625944 0.0378497 -0.035097923 -0.096687116 0.14821441 -0.02959575 0.048347186 -0.07510996 -0.08160165 -0.06713917 -0.07878277 0.08959424 -0.098528944 0.07692906 0.043349702 0.084478796 -0.052884914 0.14287578 0.03375883 -0.07792255 -0.044509802 -0.10991147 -0.13266851 0.15870804 0.007937072 -0.029192101 -0.11542279 0.042561226 0.12925285 0.034136053 -0.11944077 -0.11881874 0.12462434 0.109084554 0.0877933 0.11808745 0.06304652 -0.06288009 0.13285853 0.09612497 0.04792826
geld -0.110874325 -0.15028167 -0.17036536 0.07704189 0.0140491715 -0.1345138 -0.15810686 0.117628284 -0.07931143 0.052274466 0.13904363 0.123522595 -0.07324159 0.09999452 -0.13992214 0.09664177 -0.014980737 -0.122335315 -0.13682164 -0.05759208 0.124366246 0.13097475 0.08253228 -0.13358295 -0.15677728 -0.1556634 0.14079528 -0.12638822 -0.12493233 0.11757033 0.13416626 -0.13580444 0.00608139 0.0113129895 -0.1359141 -0.13619424 0.07382272 -0.08082299 -0.1177563 -0.07559153 0.15220049 0.12204191 0.1331158 -0.104725614 -0.07439968 0.04504173 -0.12686998 0.06437915 -0.14950268 0.14821924 0.16637214 -0.09886333 -0.0838058 0.063069366 0.051295448 0.025691757 -0.15047303 -0.09884775 -0.10364952 0.1275674 0.11233014 -0.08341624 -0.08063046 0.1298653 0.044807494 0.13104422 -0.07383419 0.16201337 -0.10224843 0.07785822 -0.104749165 -0.14726877 -0.1543514 -0.08887872 0.070803106 0.1605274 0.07242028 0.021774285 -0.095020905 -0.01331207 0.116068006 0.1108446 0.1001422 -0.09613982 -0.04783033 -0.16109405 0.10978869 0.13681258 0.10133671 -0.09263429 -0.041644167 0.100426815 0.029453829 0.0407059 0.13763504 0.11315479 -0.110493846 0.12798409 -0.12936257 0.15877546
leider 0.101245 -0.051346075 -0.094359614 0.11567454 0.1110194 0.03249213 -0.03828324 -0.054550853 -0.10147926 -0.11685561 0.044853672 0.10028035 0.058134202 -0.004292403 0.08523168 0.124374755 0.07203483 -0.009505778 -0.050205622 0.11485295 -0.011908277 -0.09236809 -0.014002703 -0.0886127 -0.1000522 0.098531045 0.09548455 0.01903686 -0.008706883 -0.06637607 0.0037354229 0.09435113 0.15407524 -0.101876676 0.11550116 0.014109744 -0.009511558 -0.010256218 0.06837278 -0.073661044 0.03174341 -0.037469972 -0.11947591 0.06407568 -0.02010799 -0.061101057 0.12432223 0.09355525 0.07033525 0.02697595 0.047785755 -0.13019685 -0.13308647 0.024520382 0.120303564 -0.014852025 0.04669952 -0.0527771 -0.08683045 0.071199775 0.002628341 0.0059337076 0.008290544 -0.042341743 -0.04716452 -0.08877772 0.017388726 0.010917661 0.008140523 -0.040089823 0.080763765 -0.062926725 0.09932272 0.0832009 -0.12937272 -0.04226384 0.13002384 0.022999885 -0.079809695 -0.017054927 -0.04618981 -0.11971146 0.096544646 0.108588524 -0.06677785 0.12462732 0.09814273 0.13629289 -0.047258887 0.11454225 0.09656826 0.045644406 0.012458485 -0.06544306 0.00026882382 0.090329 -0.009234926 0.11881615 -0.04892841 0.04342833
sybrand 0.06647664 -0.11890759 -0.14231986 0.07551117 0.112474084 0.04641936 -0.11794536 0.063201174 -0.083695605 -0.10324039 0.09170735 0.027090658 0.04861487 0.032690965 0.056180246 0.124954514 0.08604368 -0.051635563 -0.11277065 0.11247104 0.09854245 -0.02294912 -0.02053435 -0.11431188 -0.07238489 0.04005744 0.14712992 -0.007758709 -0.05264304 -0.040754948 0.06041812 0.012949854 0.12327958 -0.049495224 0.09067371 -0.023803532 0.008019203 -0.023679832 -0.080841824 -0.13593279 0.077372566 -0.039895132 -0.05015775 0.10576097 -0.07555408 -0.09713221 0.12785697 0.13685197 0.032059137 0.1467331 0.094857365 -0.15020025 -0.13996918 0.018248003 0.0067420225 -0.113148436 0.077685006 0.0031433883 -0.0372819 0.08025588 -0.107122466 -0.093424 0.10026738 -0.043207213 0.009889378 0.049404122 0.002251895 0.06526584 0.048700105 -0.09538378 0.033744186 -0.12721504 0.072778866 0.111053154 -0.10251947 -0.09872175 0.07509805 0.05197811 -0.016290491 0.003832787 0.018159332 -0.067541465 0.11005926 0.05307854 -0.09362679 0.06888723 0.06566274 0.1286234 -0.07078925 0.14061287 0.076452985 0.11194883 -0.103946574 0.014808296 0.063541636 0.08828071 -0.0430438 0.15057349 -0.06986603 0.047023907
buma 0.05045132 -0.13055325 -0.15562035 0.103571236 0.110074356 -0.09915624 -0.13795769 0.10213909 0.022703368 -0.065409206 0.13174967 0.023813887 0.05438236 0.14095469 -0.029162057 0.061883315 0.11636475 -0.13711365 -0.14467452 0.11699806 0.09438733 -0.04806826 0.100177564 -0.10614181 -0.11852748 0.095050804 0.15316631 -0.10253568 -0.11345926 -0.050410185 0.11750513 -0.008889657 0.13640685 -0.13268824 0.110405624 -0.11102272 -0.10172237 -0.017455954 -0.07148691 -0.13388632 0.15388884 0.05764532 -0.013138458 0.10193983 0.02890163 -0.13426779 0.029206615 0.15392779 -0.074008204 0.08154373 0.1308979 -0.11401682 -0.13749976 -0.07997949 -0.047678128 -0.13459904 0.05252156 0.033020474 -0.079344206 0.12331228 -0.10132708 0.023335142 0.02900412 0.020179296 0.0016899328 0.09883528 0.091617696 0.021085452 0.013989157 -0.11866536 -0.103628814 -0.15181506 0.08555217 0.030089436 -0.065896854 0.016725058 0.08388134 0.07521831 -0.10184858 -0.06736043 -0.06116245 -0.05605207 0.111937776 -0.050068475 -0.09320425 -0.016005147 -0.0071153194 0.118979804 -0.085167825 0.12514657 -0.040143818 0.102350846 -0.13561158 0.05940597 0.14322291 0.10315031 -0.100829475 0.1548733 -0.1312702 0.07852035
wil -0.10018183 -0.1361506 -0.15140454 0.028608773 0.075681426 -0.0083452035 -0.12912677 0.095596485 -0.0816642 -0.005411777 0.09044456 -0.07619545 -0.014438921 0.0036412233 -0.059768446 0.05724947 0.12144817 -0.09954925 -0.10307504 0.11874159 0.07622554 -0.09324663 -0.11752259 -0.14176087 -0.061199643 -0.0650194 0.15637495 -0.094884336 -0.047450665 -0.042999513 0.02574682 -0.008043979 0.11236849 0.08424799 0.040345155 -0.040724166 0.088407144 -0.0436768 -0.057987742 -0.14569728 -0.027298583 0.03458313 -0.05192157 0.10134217 -0.08497068 -0.113783956 0.0023858773 0.14116985 -0.009677876 0.12833416 0.061490525 -0.13441461 -0.15276083 0.030982874 0.004390258 -0.076688506 0.08487573 -0.09059072 -0.01949929 0.09257712 -0.08618471 -0.12543364 0.14132074 -0.02401669 0.06384546 0.0112046115 0.08156994 0.1354221 0.09018475 -0.038378578 -0.08467025 -0.07367562 0.044895753 0.1297773 -0.10634429 -0.026048906 -0.048801217 0.092990115 0.06117605 0.077034384 0.047552384 -0.091434516 -0.021351898 -0.045835976 -0.11899921 -0.10055933 -0.011428907 0.06772484 -0.07821391 0.021628488 0.093505405 0.13783987 -0.08974277 -0.036171164 0.1164792 -0.032492507 -0.027733704 0.17241973 -0.080396116 -0.05539952
de -0.02608204 0.14342074 0.103741914 0.106082894 -0.119134806 0.1495226 -0.10933368 -0.09959515 -0.10554029 -0.105049424 -0.09444954 0.09219127 0.10419888 -0.11803401 0.12651545 0.023939598 -0.117503695 0.108065546 0.072746836 0.008305823 -0.12686886 -0.051572543 -0.06227255 0.09882491 -0.107715905 0.11229931 -0.00070858176 0.13530436 0.07642986 0.057480242 -0.13256834 0.14002912 -0.064684436 -0.15948035 0.10841602 -0.08361834 -0.08237759 -0.04751079 0.0958074 -0.067434154 -0.09116503 -0.18613878 -0.09419045 0.06853822 -0.07954934 0.03366811 0.09059346 -0.012360835 0.1113359 -0.105551526 -0.121614456 -0.14066333 -0.12273411 0.07189061 0.08713494 0.089214355 -0.08756388 -0.057945788 -0.114486255 -0.06745936 0.027620967 0.09085506 0.115597375 0.07078974 -0.08507804 -0.11721562 0.10468017 -0.121507235 -0.0467211 0.027214581 0.10575826 0.15881453 0.11897632 0.08372688 -0.16991575 -0.11681485 0.070512965 -0.08711989 -0.09366375 0.07634315 -0.1020748 0.056763943 0.0993992 0.12143952 0.079599105 0.1840072 0.10053417 0.0897026 0.08868207 0.15542608 0.16596864 0.061657194 0.10212401 -0.112598084 -0.09675176 -0.1282647 0.123108536 -0.097605646 0.013793754 -0.059423577
in -0.10956081 -0.10751049 0.09113653 0.07120049 0.13772868 0.14504112 -0.092070244 0.104585625 -0.046372797 -0.007510968 -0.053035457 -0.10614057 0.108043484 0.14931157 0.03222055 -0.14798754 0.08690334 -0.09966069 -0.12128488 -0.14168051 -0.13357595 -0.10923117 0.1345161 0.09077073 -0.054711115 0.107582964 -0.10008651 0.009297528 0.13420075 -0.08811919 -0.08765402 -0.03975115 0.027325151 -0.14478816 0.084951445 -0.11336542 -0.12739328 -0.065165356 -0.06804448 0.08038551 -0.10340541 0.054304175 0.07144364 0.14649102 -0.059787523 -0.14841837 0.107883774 0.14089775 0.00867443 0.15991518 -0.1374319 -0.14440899 0.14271614 -0.18046425 -0.15166886 0.009711341 -0.09865974 0.17855752 0.08974966 -0.12473907 -0.06364235 0.12571457 0.08812279 -0.15156814 -0.07732897 0.122517884 0.17867221 -0.14178783 -0.046986908 0.08036414 -0.1568196 -0.12537023 0.0019062881 0.09861243 0.14156903 -0.094585955 -0.16698596 -0.13504674 -0.12917753 0.038627412 -0.12608653 0.1192367 -0.17110275 0.022336392 0.11522842 0.09550005 0.13048707 -0.17887941 0.13207248 0.1477635 -0.0654016 -0.1371743 -0.11933982 -0.06918177 0.13809234 0.12328499 -0.09944093 -0.10912092 0.04908341 -0.11391958
nederland -0.053249754 0.034087457 0.0438638 -0.03653606 -0.07368161 0.03497801 0.106857836 -0.098159105 -0.09121038 -0.10507899 -0.088152006 -0.05884943 0.088210806 -0.04748594 0.040422782 -2.7314527e-05 0.020042457 0.04946156 0.010300079 -0.13410793 -0.08321779 -0.019199187 0.040435698 -0.038294017 0.0060711293 0.11675465 -0.1320875 0.07879178 -0.04933779 0.040782165 -0.13834497 0.03649175 0.027142752 0.05678142 0.07105883 -0.021997634 -0.033137266 -0.079189055 0.104374364 0.0623513 -0.016371954 0.0758959 -0.022313885 -0.081850246 -0.019469704 -0.018773958 0.07430588 -0.094086446 0.050779935 -0.045440633 0.02087114 0.087866165 0.06602792 -0.0064621177 0.059543516 0.0074490784 -0.10508632 -0.096786715 -0.063762054 0.03227031 0.008669686 0.013744899 -0.067352675 -0.022685949 -0.054112956 -0.08336259 -0.081725 -0.05767203 0.035275895 -0.057775036 -0.0055195005 0.034078658 0.12337899 0.097940534 -0.0441278 -0.09153474 0.0815475 -0.040894847 -0.056125898 0.035800237 -0.049765278 -0.046746302 -0.009567253 0.00626685 0.06916791 0.1119051 0.050667085 -0.071982354 0.018802322 -0.039705057 -0.011507319 -0.0152324075 0.08916648 -0.064240344 0.03753365 -0.020477057 0.099239565 -0.11161027 0.029654616 -0.030442618
harder 0.07852844 -0.009145384 -0.06368435 -0.07201551 0.011336336 0.04382727 0.066877216 0.031052263 -0.07233749 0.036372337 0.10833167 0.07562329 -0.03453526 -0.07764489 -0.122874506 -0.053616922 0.036420178 -0.10513552 -0.08112312 -0.01668437 0.12567364 0.0374485 -0.11016948 -0.093446754 -0.0022016037 -0.032694895 0.03821279 -0.052383482 -0.12566313 0.006415657 0.039344456 -0.015388425 0.08257167 0.07198903 0.047471773 -0.00915882 0.09774769 0.07995936 -0.014697752 -0.07578704 0.12528774 0.09190935 0.101029806 -0.027219133 0.022128778 0.09605737 -0.11644854 0.041710395 -0.0965394 0.07521182 0.120250955 0.12729625 -0.073577255 -0.048943195 0.064599924 -0.11755895 -0.013501822 -0.04431295 0.045717098 0.11343469 -0.095115505 -0.07277536 -0.14260505 0.09797566 0.10239621 -0.025863923 0.041437276 0.11614349 0.075368926 -0.14333709 0.08786018 -0.00074957847 0.036864854 -0.052616823 -0.0051030577 0.110532194 0.022532873 0.06954626 0.06967653 -0.10147659 0.05010639 0.010616701 0.03630036 -0.09096072 -0.04752994 0.018362526 -0.0812697 -0.013021924 -0.07500306 -0.0638656 0.10535129 0.038498037 -0.0037247068 0.066381484 -0.049475413 0.06733576 0.008610441 0.06998584 0.037327614 0.12624258
aanpakken 0.055446245 -0.029119141 -0.07785515 -0.11248653 0.11224149 0.063546956 0.11763622 0.0029182953 -0.0792981 0.03257102 0.08285897 -0.0045325714 -0.027829375 -0.046028443 -0.022952463 -0.0064510168 0.07914005 -0.014759148 -0.076361075 -0.037174456 0.08558027 -0.057696562 -0.084464915 -0.13338695 0.108333215 0.012002189 -0.07163139 -0.038897008 -0.08338506 -0.020010209 -0.009284715 -0.071762346 0.12708637 0.058931008 0.041034523 0.07787056 0.09862791 0.06097082 0.049047407 -0.05834959 0.11602721 0.098103754 0.071346946 -0.023130994 0.02647568 -0.012843137 -0.07497807 0.05324132 -0.10414336 0.09949346 0.0856355 0.11588735 -0.092500724 -0.09786002 -0.011275754 -0.07285122 0.030807225 0.031934805 0.10635848 0.10987945 -0.08640075 -0.06531491 -0.06268396 -0.050824188 0.097015575 -0.05497261 -0.0130641265 0.111428745 0.12589756 -0.12816425 0.066746235 0.0894002 0.015388871 0.029347654 -0.053571716 0.09782338 -0.022832004 0.05160199 0.108384535 -0.060276903 -0.011083538 0.061348896 -0.018813951 0.009564415 -0.053061087 0.038900405 -0.12020216 -0.11226975 -0.11295222 -0.0759651 0.07856307 0.032139786 -0.07116613 -0.009540381 -0.037635773 0.08866809 -0.042336185 0.061012093 0.059450895 0.10200857
hij -0.00043515163 -0.063280985 -0.004838304 0.0102930665 -0.06491469 -0.16767353 0.015104537 -0.092367455 -0.09648541 -0.046334893 0.036657598 -0.02085355 0.14473917 -0.09223181 0.039147027 0.15653695 -0.025470927 0.007208999 -0.030624093 -0.09955584 -0.030426871 -0.11487108 -0.08916253 0.07625597 -0.14088094 0.10248614 -0.083893135 0.045907654 0.042057794 0.15303834 0.07155668 0.044393934 -0.009886358 0.0010023591 0.116397955 -0.040927503 -0.026209487 0.016232077 0.14310285 0.039435513 -0.07509793 0.16292682 0.013555123 -0.15071791 -0.11828288 0.0627897 0.10123147 -0.118275486 -0.007516557 0.027814025 -0.07118944 0.0690087 0.020233843 0.11525908 0.03338422 0.0493683 -0.04956551 -0.1355706 -0.11641401 0.026318135 0.118340686 0.13030332 -0.12184317 0.15642685 -0.0117946165 -0.1096583 0.002205525 0.075614244 -0.08133605 0.031084348 0.117656015 0.11244776 0.10384078 0.06546736 0.03378641 -0.05574685 0.10210359 -0.038679037 -0.064136215 0.08722866 -0.07303729 0.16192381 0.091580644 0.03788123 0.07695315 -0.14000724 -0.02573567 0.1244135 -0.024066737 -0.086080745 0.1012323 0.031078495 0.079449296 -0.11477873 -0.06650242 0.05996991 0.068476275 0.09581877 -0.061952922 0.039244007
komt 0.12359217 -0.092896216 -0.0166253 0.0014747534 0.048473913 -0.11881979 -0.08319779 -0.01888915 -0.011108676 0.07090207 0.07691533 -0.0203624 0.056993634 0.07169299 -0.09554916 0.066153154 0.12871525 -0.14597277 -0.12979834 0.039098684 0.06593665 -0.03045576 -0.0050742947 -0.060524963 -0.038145784 0.04083662 -0.0957762 -0.100031905 -0.05315897 0.060576215 0.14181384 -0.009719891 0.108623564 -0.12231649 0.09332576 -0.01796715 0.024001373 0.12685943 -0.057205815 -0.12534793 0.079427965 -0.014378169 -0.033920877 -0.058224414 0.021878023 -0.11438086 -0.030224653 0.01877571 -0.060520176 0.09308662 -0.043472104 0.008592553 -0.023996029 0.020142905 -0.10893481 -0.11048611 0.06289244 0.027589126 0.0641542 0.14427361 0.009196494 0.04683574 -0.026455125 0.09499805 0.05975944 0.04410673 0.0046226173 0.08808977 0.06407518 -0.120272666 -0.05312481 0.05972939 0.056542225 0.015804572 -0.07124001 0.01322261 0.06745506 0.107435286 0.027873937 -0.03478419 0.036945343 0.12493229 0.04563415 0.09857138 0.025853315 -0.09097389 0.06157728 0.03761223 -0.09647593 -0.059066 -0.055185936 0.014783711 -0.053902287 0.050342254 0.063271746 0.039519727 -0.08128372 0.093700975 -0.09302117 0.092339404
vandaag -0.0573369 0.0981172 -0.104502745 -0.08711009 0.071007796 0.06283936 0.10742818 -0.07476446 0.040909417 0.011617314 0.1105759 0.0935911 0.10412708 0.10239553 -0.045506928 0.1078418 0.10645909 -0.1499296 -0.14300002 0.09482246 0.09447988 -0.1356494 -0.06370401 -0.12669173 0.101218894 0.08089653 -0.099345304 -0.14793299 -0.07214855 -0.0073407465 0.15951711 0.017933164 0.056377206 -0.14339642 0.07438243 -0.07526235 0.022349875 0.15050647 0.024401585 -0.1427626 0.11588021 0.06514798 -0.056040004 -0.12121391 0.13904719 -0.08127807 -0.076108836 0.0639464 -0.13290916 -0.047923088 0.013250564 0.15528426 -0.12533545 -0.057922676 -0.08781592 -0.14064515 0.097629435 0.12151325 0.009851378 0.1419264 -0.03912768 0.046011414 0.10332638 0.060634896 0.059060957 0.082223244 -0.12529266 0.034092776 0.1172743 -0.0987585 -0.09355352 0.08003745 0.05868945 -0.092517264 0.032666955 0.07527378 -0.025494512 0.15854518 0.10449007 0.079075195 -0.01876567 0.11744907 0.06431638 0.11113163 0.054792326 -0.0015917867 -0.13780904 -0.029109912 -0.12727486 -0.14430574 -0.09901617 0.13348934 -0.13070959 0.118432894 0.15021439 -0.0075092553 -0.06545088 -0.062025744 -0.15318015 0.04961207
met -0.051901713 -0.021318665 -0.05801721 -0.044480037 0.15131815 -0.16808127 0.16750532 -0.14419177 -0.08638097 -0.069540456 0.03326454 0.11845487 0.112453036 -0.055058315 -0.061757576 0.13797772 0.0020235628 -0.16885526 -0.14079557 -0.0919989 -0.037449993 -0.12898467 0.056306094 0.027855065 -0.016892647 0.11207991 -0.13999279 -0.14864708 0.10930471 0.07415665 0.14403485 0.064233944 -0.1265379 -0.15523359 0.11547332 -0.09215078 -0.039149623 0.014738649 -0.035637178 0.014026176 -0.043099143 0.13658895 -0.07049647 -0.12671861 0.08631518 -0.11527008 -0.0105777085 -0.116831124 0.025653288 0.13374358 -0.082757145 0.15305333 0.06701969 0.118433125 0.08350395 -0.11636934 -0.06011451 -0.081466235 0.12533635 0.09809808 0.09667893 0.1113796 0.06427197 0.04402068 -0.03526286 0.11788813 -0.12892662 0.071198314 -0.061376598 -0.0050241933 0.085549235 0.13548656 0.12012365 0.10312128 0.13552752 0.080359206 0.14756958 0.057582222 -0.11560653 0.095947236 -0.067298114 0.113938674 0.07650831 0.13449243 0.058923338 -0.07528763 0.073734306 0.03512953 -0.13088733 -0.15564851 -0.12429676 0.09310061 0.067903355 0.069733255 0.16463217 0.10331232 0.07786157 -0.10323275 -0.07093002 -0.12843496
een -0.07793687 0.16408162 0.094853155 0.12740242 -0.16519858 -0.04665053 -0.17121157 -0.09050613 0.11070514 -0.07623284 -0.12999812 0.12636682 0.14119937 0.13706033 -0.08440789 0.035302486 0.061258826 -0.061768137 -0.07857847 -0.117710866 0.14308038 -0.068534195 0.0929295 0.12985069 0.1130262 0.08813989 -0.13148826 -0.10654386 -0.0966038 0.060295332 0.15257598 -0.010391977 -0.13433903 -0.15499136 0.11156338 -0.12747124 -0.1316977 0.044485018 0.07349886 -0.0071718525 -0.06560245 -0.15533777 -0.151189 -0.124151476 0.0926824 -0.14441258 0.047843408 -0.1337175 0.07435224 -0.15853229 -0.12775557 0.1640417 0.10653063 0.14039122 0.038774885 0.09942429 0.08912059 -0.09462275 -0.03270097 0.16045316 0.11010897 0.13003756 0.090153255 -0.023994444 -0.10255167 -0.14689596 -0.13625212 -0.09642232 -0.088884965 0.07701289 -0.15039946 0.04463878 0.12285086 0.11651411 -0.1165276 -0.096399054 -0.052958585 0.18424813 -0.015679268 0.060995486 -0.11838864 0.144047 0.03422639 0.13899857 0.12509471 0.14771396 0.076023616 0.05923838 -0.0060446043 -0.15885997 -0.14770718 0.16410945 -0.046628475 0.0102605205 0.055778176 -0.17747362 0.12155326 -0.14503597 -0.15319611 -0.10869653
pakket 0.035423502 -0.02437404 -0.0969326 0.040842354 0.073280156 0.0020521665 -0.010453554 0.01915987 -0.038445443 -0.035536718 0.04266193 0.05358178 0.036521036 -0.0009873249 -0.003429051 0.02659382 0.02901423 -0.085063174 -0.0913505 0.06220171 0.0843556 -0.026796985 -0.0073736073 -0.050748006 -0.055204943 0.09240622 -0.054231185 -0.08455371 -0.06577595 0.010518999 0.05273581 0.0075199627 -0.02358715 -0.056958124 0.06714391 -0.07570299 0.03248489 0.050279878 -0.034317993 -0.101104945 0.10362173 0.059954148 -0.029828472 -0.03940213 0.011610747 -0.0029049963 -0.065026626 0.029709458 0.011983343 0.047763947 0.065114826 -0.0071505844 -0.003437771 0.04496709 -0.0070388117 -0.0870205 -0.042981744 -0.040824227 -0.022669584 0.09139249 -0.024017392 0.016348002 -0.023807378 0.055841304 0.052437022 0.03535851 -0.0777128 0.03383399 -0.03911223 -0.049686313 0.056989394 -0.094490334 0.09675964 0.039498687 -0.03179189 0.02160753 0.06662905 0.050197043 0.009030875 0.0009044332 -0.04294714 0.0679502 0.056767117 0.055467788 0.013038694 -0.03049586 0.028843798 0.06786656 -0.05911157 -0.04321823 -0.03676074 0.10766436 -0.0029212132 0.03478931 0.04586216 0.0036745006 -0.036143463 0.06572766 -0.051886033 0.0417795
aan -0.15933955 -0.14874935 -0.17159541 0.11077759 0.1524046 -0.09625564 -0.158255 0.05796216 -0.13181058 -0.1447937 -0.0066653932 -0.14229801 -0.11762075 -0.016224893 0.036778208 0.11348785 0.09236475 -0.07067433 -0.15386462 -0.07342226 0.053413015 0.08143357 0.09303657 -0.1016632 -0.1190163 -0.027003681 0.13092873 -0.09744346 -0.083917364 0.012734446 0.0875169 -0.08971979 -0.14057572 -0.042794555 0.089518346 -0.124764524 -0.029575868 -0.11999645 -0.13882874 0.031603552 0.070849344 0.10973373 0.13077433 -0.05428307 -0.13195047 -0.1361377 -0.12375626 -0.08105506 -0.0066962945 0.15099333 0.054876305 -0.1618559 0.07638167 0.017881908 -0.043042913 -0.13551366 -0.1466545 0.121105656 -0.04049773 -0.050876785 -0.13366883 -0.1322962 0.12912345 -0.013332825 -0.0371313 0.11136021 0.055538114 0.007729277 -0.0903604 0.060161784 0.07458612 -0.16244386 0.05265469 0.02123792 -0.06876662 0.06312184 0.06394673 -0.08845522 0.0033334848 0.12220499 -0.12744765 -0.14620069 0.09651649 -0.059575845 -0.11736443 -0.08587278 0.114012934 0.10412684 0.031836055 0.07158524 -0.107687995 0.035162076 -0.11363804 0.062156122 0.16086946 0.07831598 0.0372979 0.089315884 -0.015680028 -0.038871698
voorstellen -0.046607606 -0.07093143 -0.13502504 0.015950885 0.07941871 -0.0041366043 -0.099443875 0.10848866 -0.060595095 0.04791758 0.06657846 0.065393515 0.03221659 -0.004009 -0.079578 0.020463891 0.045474935 -0.042563718 -0.11365625 0.042957444 0.08109126 0.056092106 -0.08519576 -0.05696526 -0.055740383 -0.049161445 0.07863356 -0.084407516 -0.060995772 0.06442491 0.09232388 -0.07273358 0.018025333 0.057472624 -0.0107137505 -0.051173408 0.086667724 -0.01716303 -0.08671246 -0.034151264 0.07382032 0.103985034 0.04616469 -0.014593029 0.007376299 0.041447073 -0.118299745 0.06920446 -0.052556336 0.084507875 0.08442322 -0.07121339 -0.052829735 0.020745842 -0.034629505 -0.058597833 -0.019611085 -0.063007966 -0.017607722 0.10291919 -0.015659891 -0.088154264 -0.0012690076 0.08695906 0.017013544 0.051713884 -0.007302151 0.1042696 -0.050069652 0.00799701 0.034409624 -0.09184991 -0.06718358 -0.021799117 0.038634706 0.10058277 0.025860094 0.0350316 -0.0023428707 0.018895721 0.042445417 0.024561593 0.010688664 0.07891081 0.0029626673 -0.11282772 -0.0018537507 0.0628154 -0.042310033 -0.026210137 -0.037425525 0.09127517 -0.010436143 -0.0069943415 0.07827287 -0.03205692 -0.07840146 0.11327799 -0.05611647 0.09871865
die -0.03643102 -0.072413824 0.109965235 0.061371163 0.065599255 0.14772794 -0.051121034 0.011174689 -0.023168456 -0.07525597 -0.017268205 0.070422634 0.03710975 -0.049274426 -0.09857682 -0.032863848 0.03965847 -0.10745468 -0.11825072 -0.040792223 0.033056483 -0.008882089 -0.12718357 0.0121176755 -0.03182271 0.07381768 -0.1282697 -0.09872766 -0.0239297 0.03361639 0.014957192 -0.06989778 -0.00733805 -0.11036874 0.13744555 -0.04027582 -0.028651297 0.07128986 -0.075982936 -0.04088957 -0.081523016 -0.035599183 -0.100956045 0.024281437 0.1009654 -0.072527386 -0.09931746 -0.061493848 0.09132994 0.051633034 -0.09656287 -0.004540307 0.1423482 0.05048506 -0.14133058 -0.13531035 -0.047812294 0.019353239 -0.065880574 0.0673064 -0.12355313 -0.03046288 0.051033933 -0.0074850577 -0.13366462 0.10249417 -0.04921113 -0.034425918 -0.113612175 -0.12976758 0.0047507137 0.010042402 0.14750662 -0.11918426 0.025511017 0.051722303 0.0992047 -0.01213217 -0.1074566 -0.14164124 -0.06740352 -0.0023709855 0.076883875 0.09284057 0.08141611 0.13066961 0.13736127 0.09620232 0.0800313 -0.009337231 -0.13350837 0.07152092 0.013611294 0.11614372 -0.07648821 -0.078264534 0.0574589 0.10320463 0.06892503 0.098676115
ervoor 0.015094249 -0.113352954 -0.08735966 -0.022823973 0.080982424 0.062191922 -0.07069685 0.11062644 -0.09797213 0.11167597 0.054778837 0.065276645 -0.018157743 0.09490276 -0.047744654 -0.056005344 0.06968179 -0.05204363 -0.08803303 -0.004678946 0.089849904 -0.008749692 -0.004400841 -0.060732372 0.024431756 -0.07969147 0.0801277 -0.073096655 -0.11640831 -0.007987118 0.080035605 -0.128008 0.10531761 0.030364145 -0.02506529 -0.032853987 0.04843024 -0.005164406 -0.114079125 -0.012763126 0.09013101 0.1070849 0.072267696 -0.013710645 0.023288824 -0.0127512105 -0.10031789 0.090961404 -0.12456363 0.10843685 0.033051476 0.030595308 -0.10416669 -0.09202352 -0.12196621 -0.11026089 0.03794917 0.07523537 0.08424507 0.084197104 -0.06845839 -0.04452347 -0.040401142 0.018114664 0.04095316 0.08354446 -0.036137775 0.088759996 0.06070227 -0.10181026 -0.058640786 -0.10683893 -0.08970849 -0.09479215 0.07276273 0.11501989 -0.021675026 0.0132604465 0.10820913 -0.03950641 0.044540938 0.051176608 0.04601968 0.027386026 -0.022120517 -0.124451876 0.012544889 -0.046419293 -0.015317639 -0.00638846 -0.014550067 0.014955641 -0.05130843 0.04412428 0.054405015 0.1004225 -0.11822901 0.08642902 -0.0953252 0.10585742
moet -0.06799328 -0.067095645 -0.02906231 -0.021606151 -0.08769074 0.039937038 -0.03827419 0.04487816 -0.09945035 0.15052351 0.10155066 0.059964996 -0.0031126267 -0.068340674 -0.12613921 -0.012528111 0.052654337 -0.083516486 -0.032712642 0.04346483 0.11974712 0.031090392 -0.10142484 -0.09341316 -0.005699794 -0.080208935 -0.028753903 -0.12196245 -0.0652068 0.020420363 0.055644635 -0.059348572 0.010347411 0.116667986 -0.05889515 -0.033823647 0.11953904 -0.08766177 -0.09857468 -0.020606058 0.057914093 0.099039756 0.10231492 -0.024165928 -0.034744795 0.12841725 -0.10955073 0.070444696 -0.012953663 -0.027204605 0.14151353 -0.038815923 0.011404316 0.019376392 0.051399667 0.0007048008 -0.1358126 -0.06249932 -0.0026673619 -0.023195384 -0.012809015 -0.077118956 -0.09926359 0.1312406 0.07606482 -0.040287923 -0.011258534 0.1255982 -0.012730927 -0.06377874 0.057435688 -0.11166197 -0.10793432 -0.07498718 0.12576877 0.14039427 -0.006350175 -0.009005757 -0.018315027 -0.12452584 0.11417393 -0.024405202 0.09766519 -0.09021907 0.007718182 -0.124038264 0.08766958 0.04895711 -0.06232196 -0.07499953 0.1274246 0.14339048 0.09398238 0.013873213 0.0035731695 0.07048243 -0.034179688 0.10583727 0.06438478 -0.005871526
zorgen 0.09248027 0.10520444 0.06849545 -0.07493784 0.14989156 0.13839616 0.13278471 -0.043166656 -0.11503113 0.112943724 0.017226607 0.13810481 0.038090084 0.046406798 0.10060549 -0.098441884 0.11617465 -0.07398963 0.018756906 -0.0015418059 -0.061662976 -0.09559352 -0.022525541 0.00624582 0.12777868 -0.012024162 0.06328241 0.0051819454 -0.10016648 -0.09552847 0.115022086 -0.04191923 0.13031174 0.10013672 0.040606357 0.058048777 0.061534666 0.009863697 -0.12416738 0.04723953 0.07604748 0.13395958 0.0067397375 0.0427077 0.08497454 0.106258824 0.022971489 0.13502395 -0.13559319 -0.023521392 -0.10682249 0.088207 -0.14066476 -0.1252131 -0.12029747 -0.1311047 0.0685287 0.16864854 0.120542355 0.026450036 -0.07502317 0.036605317 0.057258848 -0.0068646343 -0.022834497 0.04423032 -0.097784534 0.079046406 -0.006268492 -0.10640903 0.11545917 -0.06931454 -0.016733568 -0.1530847 0.091131486 0.11724157 -0.04775466 -0.038098376 0.15548027 -0.008164796 -0.03410039 0.11191333 0.13465814 0.11956437 -0.00086202833 -0.08267268 -0.085195586 -0.121461086 0.016217705 -0.033613555 0.08813314 0.052679446 -0.10428353 -0.03463905 -0.02170066 0.10802548 -0.13172416 -0.03892355 -0.11115603 0.09204663
dat -0.10548143 -0.11811103 -0.017590158 0.12301267 0.11324411 -0.06094741 -0.13527377 0.13529539 0.007609181 0.12080396 -0.12871462 0.13905582 0.11753193 0.11596862 -0.084213495 -0.0029790695 -0.13184123 -0.093246475 -0.09852102 -0.12449558 0.1765505 0.17451324 0.14495768 0.066712536 -0.13642807 -0.08106497 -0.034728933 -0.12571432 -0.07282462 0.14854598 0.09813139 -0.15317369 -0.10210284 -0.027053624 -0.08159913 0.0671796 -0.037687425 -0.017067647 -0.10461685 -0.05382731 0.08207678 -0.10669247 0.08572516 -0.13189937 0.118568525 0.15182683 -0.15863064 -0.123449385 0.03791124 0.18118072 -0.015169961 0.11158183 0.064318635 -0.06700806 -0.0026663262 0.001164078 -0.11585412 0.15059793 0.16588685 0.063236736 0.10482857 0.0561069 -0.15011993 0.13428561 -0.11288196 0.10110996 -0.10562297 0.0058955974 -0.11803404 0.08524409 0.042175964 -0.1048508 -0.15807839 -0.12727582 -0.030466216 0.09130133 0.06544982 0.13772142 -0.10356634 0.08513463 0.046426352 0.14216109 0.10104891 0.09812607 0.12557577 -0.12846501 -0.09173542 0.119033515 0.15344545 -0.07998409 -0.10936594 0.10399653 0.07032381 0.122109056 0.09913665 0.13103978 -0.12405152 -0.01941775 0.004151323 0.16071013
onze 0.14555146 0.09657874 0.036303066 0.10400238 -0.02801772 0.17060222 0.13293862 0.13663994 -0.1218631 -0.030275505 -0.035965163 0.09868162 0.11613333 0.00017519598 0.02447581 -0.16025698 0.086771205 0.04891305 0.12789053 0.031830564 -0.047754113 -0.08685206 -0.16454719 0.060101185 0.10557374 0.11858664 0.020979056 0.15472478 -0.14260216 0.037891727 -0.12523007 0.14167008 0.100051664 0.08070513 0.020755962 -0.09821542 0.041591637 0.09889845 -0.05042423 0.044953916 0.12016435 0.0697007 0.053497437 -0.062256977 0.098436 -0.04242372 0.049811818 0.10665607 -0.05090578 -0.13231464 0.033204883 0.027796656 -0.0770159 -0.09432807 -0.013844409 -0.021812586 0.12332296 -0.055292733 -0.03856681 0.0712851 0.03654954 0.09730098 -0.037251852 0.15103221 -0.067902096 -0.14901924 -0.105150454 -0.1355518 0.002842023 -0.104068205 0.09700609 -0.13279063 0.1186837 0.016299967 -0.13926044 0.047656458 -0.12405872 -0.08993107 0.15227814 -0.09912981 -0.13228953 0.10909987 -0.09112809 -0.0020267873 0.06133459 0.0037942915 0.062372357 -0.014140591 -0.04711914 0.02028683 0.16008544 0.07756172 -0.11109906 -0.112052485 -0.17059213 0.023260247 0.026167216 -0.051648743 -0.13504395 0.12835568
samenleving 0.0920175 -0.055760857 -0.0529257 -0.026321875 0.069804385 0.11673645 0.0497938 0.11852775 0.018232347 0.031922907 0.07790294 -0.094160706 -0.06700162 0.104624 -0.04180137 -0.0999773 0.101460226 0.045188837 -0.026425965 0.1369817 -0.022662599 -0.021232374 -0.10855693 -0.1012508 0.07510379 -0.012890023 0.13758844 -3.8320853e-05 -0.07782956 -0.11995339 0.04480444 -0.009706312 0.12901996 0.10524752 0.01401129 0.045642924 0.0958036 0.07682438 -0.049476504 -0.10813347 0.1365225 0.039793257 0.03525024 0.1443711 -0.022668613 -0.14111318 -0.057913855 0.15769483 0.0040255524 0.017370516 0.061541565 -0.07031713 -0.11193263 -0.12153043 -0.099799626 -0.09110913 0.13082452 0.067342214 0.04940015 0.08274207 -0.09704084 -0.115447834 0.09067171 -0.081211604 0.10789974 -0.066633135 0.11139799 0.016250655 0.13654673 -0.0989306 -0.06545465 -0.12096528 -0.02283355 0.0015870039 -0.05063013 0.0194117 -0.1235523 0.0055913334 0.12627979 -0.06507547 -0.0094404435 -0.07297625 -0.06402224 -0.054450266 -0.10068506 0.07171612 -0.13364018 -0.06907473 -0.1344398 0.092768416 0.10829721 -0.001074882 -0.13890648 -0.02020914 0.0027994658 0.013960749 -0.0992892 0.1335295 0.048189756 0.086760424
ontwrichten 0.075628184 0.03137777 -0.085829064 -0.06637386 0.015199327 0.11269194 0.08442663 0.060301688 -0.041886203 0.04684342 0.115478046 -0.052359324 -0.073382504 -0.032441724 -0.11315304 -0.1058873 0.071022764 -0.05166768 0.0032058957 0.109364204 0.11812896 0.08438753 -0.123440064 -0.10881655 0.027822912 -0.019355318 0.10076504 -0.07631815 -0.10509834 -0.12496457 0.018831933 0.037339684 0.086684644 0.09862824 -0.015014439 0.04375181 0.121628314 0.07529905 -0.05929828 -0.09075517 0.120784186 0.03834931 0.095392875 0.10458138 0.10658465 0.050485894 -0.10697396 0.13008972 -0.03398486 0.060714953 0.039851278 0.04987732 -0.107972726 -0.08777632 -0.060523827 -0.08381653 -0.052746706 0.06971021 0.04761543 0.08342365 -0.11281571 -0.10488098 -0.084943764 -0.0068039866 0.124468096 -0.025788033 0.041490875 0.056537833 0.055231623 -0.123616636 0.09780792 -0.07392243 0.029552119 -0.11609529 0.073376186 0.12051 -0.041212663 -0.032749344 0.07487881 -0.11123171 0.105925605 -0.07379192 0.03899456 -0.078282446 -0.09941945 0.09117514 -0.09109126 -0.010057874 -0.09514572 0.030187447 0.068463236 0.08745844 -0.015898408 0.08540428 0.0025337564 -0.019744853 -0.0839611 0.08222432 0.107482 0.10666918
sneller -0.061350487 0.089474745 0.065991655 -0.009977667 -0.0593884 0.09730663 0.12623902 -0.045994833 -0.10232657 -0.039221976 0.10592413 0.079593286 0.026947714 0.040416546 0.04114747 -0.15087147 0.03130981 -0.10511906 0.013594676 0.14127801 -0.0010754328 -0.023054827 -0.14163265 -0.015389367 0.026492713 0.06765859 0.10610354 -0.10599028 -0.070036694 -0.15403493 0.107225806 0.10334082 0.065708466 0.13672444 0.0833673 -0.044251904 0.11803229 0.057583347 -0.12672567 -0.04810421 0.09940619 0.07192861 0.0370737 0.048401713 0.11045901 0.14036195 -0.058507785 0.14561597 0.08961591 -0.089231335 -0.08679742 0.12079559 -0.13374858 -0.03600655 -0.09331909 -0.13858522 -0.12359282 -0.004257016 -0.06620293 0.06466641 -0.13377334 -0.081028685 0.011678593 0.06721995 0.12759966 0.017104823 -0.08136507 -0.053254392 0.0850969 -0.1371846 0.12233814 -0.111983016 0.10470703 -0.10855864 0.12845238 0.018873658 0.023264907 -0.0525992 -0.024013642 0.00016348241 0.030516623 0.03404587 0.10389463 0.064988256 -0.009185824 -0.03508268 -0.13851692 -0.0341774 -0.14552969 -0.11715221 0.04566246 0.13670401 0.089968614 -0.023436032 0.08785837 -0.096716285 -0.11024284 0.014584734 0.023294872 -0.035214357
worden -0.011578718 -0.024941131 0.15510568 0.09300586 -0.1528883 0.051504806 -0.109503224 -0.14877468 -0.124714665 -0.015261288 0.09433096 0.10924687 0.05222292 -0.007943494 -0.03818906 -0.16472672 0.033162862 -0.14850955 -0.11253126 0.141518 0.07999046 0.17597514 -0.14750342 0.09594955 -0.13133998 0.07505327 -0.0715282 -0.17743325 -0.057813182 -0.15803443 0.13317363 -0.007797249 -0.10654643 -0.0125817675 0.095984854 -0.049373344 0.10771367 -0.08371008 -0.1729639 -0.013008539 0.06963286 -0.016267745 -0.06978004 0.114628024 0.11046167 0.1684049 -0.16337565 0.13215135 0.15384936 -0.1529948 -0.02640756 -0.10200947 0.05595035 0.10556388 -0.14320268 -0.15382567 -0.16235483 -0.13447365 -0.08318109 -0.05768037 -0.15161438 -0.112346224 -0.09177338 0.08338638 0.10330741 0.15470164 -0.016580742 -0.12220812 -0.10195856 -0.17664625 0.17390941 -0.16144583 0.032058585 -0.14739433 0.1678742 0.0086049 0.10594761 -0.1031357 -0.14063227 -0.11703568 0.120337576 0.06951001 0.15435745 0.12913947 0.06880237 0.019422615 0.072930716 0.14543547 -0.13370627 -0.1340746 -0.08203601 0.08883577 0.1763435 0.04440853 0.123133235 -0.030552495 -0.113924146 0.05786926 0.14448819 -0.041846827
vastgezet 0.08444848 0.038134184 -0.07951762 -0.046987824 0.040329468 0.08875203 0.057160873 0.033951428 -0.081246026 -0.015437781 0.106409915 -0.01473957 -0.05680814 -0.027944999 -0.11345988 -0.10592263 0.065647155 -0.072192 -0.033133887 0.11716146 0.11413281 0.1016866 -0.11291015 -0.082548745 -0.032150824 0.008179912 0.08828882 -0.08641288 -0.11532263 -0.12111329 0.08288991 0.049753655 0.0794643 0.069137305 0.048451867 0.028573109 0.11590274 0.087720826 -0.07450642 -0.10258528 0.11031288 0.031964485 0.09908708 0.09704752 0.11711529 0.11123394 -0.10228818 0.097009405 0.0010793654 0.0039459136 0.052312963 0.054326843 -0.084315196 -0.06299106 0.001597232 -0.09124583 -0.10300594 0.05448413 -0.012754652 0.095352106 -0.10455803 -0.10652984 -0.10296971 0.03673838 0.10876258 -0.0071688676 -0.014018804 0.08761649 0.03017853 -0.105398975 0.08648998 -0.07381584 0.08577152 -0.105947986 0.044595275 0.11403411 0.029482719 0.010101762 0.017864143 -0.102027245 0.0878536 -0.08342651 0.09723748 -0.075461276 -0.08672563 0.046857607 -0.084622644 0.04676872 -0.11449234 -0.0782921 0.035714697 0.097139135 0.06924631 0.106699795 0.052436545 0.007986746 -0.060136802 0.09780381 0.07756032 0.09653213
gestraft 0.1143144 -0.04587826 -0.09126832 -0.07522137 0.05747852 0.10162979 0.06882907 0.045364413 0.032028455 0.066414006 0.11490463 -0.025554016 -0.055712968 -0.047021642 -0.10411959 -0.09969078 0.05038934 -0.04701524 -0.034175538 0.11333014 0.1005376 0.09781193 -0.12340665 -0.08447967 0.04764401 -0.07684507 0.10754673 -0.044010006 -0.0988604 -0.09595196 0.04526043 0.03771594 0.09736638 0.096849434 -0.02713615 0.08977284 0.1057007 0.08792042 -0.06987306 -0.10111907 0.10297682 -0.0491835 0.06605519 0.10801913 0.105635256 0.11832108 -0.103296444 0.104528025 -0.06855172 0.08109774 0.08677508 0.08217385 -0.0560604 -0.08347262 0.0045420467 -0.07515191 -0.04067377 0.058747277 0.07482832 0.08881025 -0.09640093 -0.110381275 -0.09832378 -0.043734815 0.112792835 -0.0042817197 0.021368092 0.109316505 0.05718489 -0.109218985 0.07093421 -0.023189362 -0.038111575 -0.09687379 0.05697186 0.0984121 -0.02766455 0.043201797 0.054400768 -0.1218051 0.09888685 -0.075797014 0.056252766 -0.057464454 -0.09720805 -0.00413764 -0.07134188 -0.008454694 -0.10047587 0.017305521 0.05710813 0.052479953 -0.037518475 0.10555099 -0.009877294 0.037201494 -0.04993356 0.10687086 0.097376116 0.09784136
ook -0.02677325 -0.1465271 -0.08200112 -0.07424665 0.12790756 -0.10725522 -0.114267424 -0.08031216 0.044366714 0.005102808 0.03347732 -0.09545615 -0.07378989 -0.071635045 0.045460854 -0.07674643 -0.06392433 -0.14703143 -0.13043666 -0.14939521 -0.1090159 0.038550526 0.01045743 0.13160494 -0.12471075 0.008443331 -0.088733956 0.1030848 -0.044068977 0.16599703 0.11594797 -0.1159496 -0.0383284 -0.13189621 0.067935675 -0.0060614063 0.038375825 0.05408765 -0.15038504 -0.013171704 -0.09256446 0.09546231 0.16100903 0.16855425 0.045580532 0.14347811 -0.14706445 -0.0019827408 -0.036618944 -0.024893267 0.06251174 -0.14329721 0.12715907 0.09184926 -0.0028962428 -0.009230018 -0.1051443 -0.11083918 -0.13663949 -0.108989656 0.046176966 -0.14515111 -0.1063956 0.11735131 0.038679276 -0.067128666 0.11346499 -0.09638152 -0.12717193 0.02075231 0.12911503 -0.0020641114 -0.10221693 -0.058045186 0.11132999 -0.028397314 0.1108933 -0.11895615 -0.09344906 -0.12360725 -0.019341039 -0.12859626 0.0669816 -0.14750718 0.00055321126 -0.14469163 0.044767063 0.089369155 0.14848645 0.16305205 -0.111296825 0.10415996 0.10946286 0.106849395 0.0767751 0.093944944 0.10644893 0.13574946 -0.10594078 0.026070062
al 0.0691904 0.056848865 0.09042142 -0.092004724 0.07969083 0.09507096 -0.038467724 -0.077695884 0.025163218 -0.052174017 -0.11209645 0.09472449 0.044122733 0.0382061 0.06687926 0.06506335 -0.11540983 0.023668941 -0.11240248 -0.11979568 0.08667645 -0.05686854 0.0024812585 0.09161753 -0.04942402 0.042922333 -0.12619194 -0.026078619 0.12106115 -0.039268494 -0.0052953707 0.07631591 0.012987084 0.111929856 0.09646258 0.05450881 -0.06982141 -0.0077884877 0.076763466 0.066987984 -0.023463903 0.019873967 -0.07910343 -0.08614164 -0.01970356 0.101993755 0.06616654 -0.0678772 0.078888565 0.068215564 -0.043163028 -0.062279146 0.1307368 0.0440655 0.06504641 0.14459631 0.033542167 -0.014151493 -0.08294429 -0.11484097 0.0095849 0.08067018 0.025077626 -0.017407607 -0.03952735 0.0907832 0.008934248 0.0490256 -0.0056239213 0.11342645 -0.020675939 0.14023142 0.04756954 0.07659564 0.12511945 -0.09286238 0.039070267 0.013088249 -0.035905644 -0.03894935 -0.03311484 0.01524716 0.12851763 0.058909778 0.05181266 -0.036809597 0.07129504 0.059231274 0.05693826 -0.09791615 0.008247845 0.08754512 -0.019101921 0.09176914 0.040465776 0.07199587 0.06314466 0.008117282 0.08658979 -0.09251384
bevroren 0.082001746 -0.04581941 -0.070453934 -0.02470398 0.118106574 0.058664303 -0.07593895 -0.06396588 -0.09665126 -0.02095486 0.052562658 0.028501863 -0.0068331347 0.03397887 0.0076099974 -0.040602583 0.03087841 -0.04250906 -0.07601357 0.003080991 0.07414246 0.117904514 -0.051493715 -0.07171598 -0.05661088 -0.038648862 0.05416638 -0.10310112 -0.08402037 -0.06914871 0.11341186 -0.051791925 0.1145485 0.040527318 0.054587506 0.037207976 0.031041129 0.106047004 -0.10773106 -0.070938185 0.07429783 0.08751032 0.034342848 -0.035081297 0.052339613 0.1146175 -0.05626045 0.023681385 0.014652529 0.0153233595 0.099006146 0.08107775 -0.0075429063 -0.01294314 0.09566398 -0.067965865 -0.11596072 0.011966799 -0.016792689 0.064677656 -0.051249042 -0.06048256 -0.070194796 0.009600194 0.061182972 0.08808721 -0.08185543 0.04243838 0.009580102 -0.077881634 0.044368874 -0.043255422 0.018841246 -0.062383756 0.028586617 0.028428666 0.09492882 0.031419594 -0.04084601 -0.0895709 0.051285353 -0.08872835 0.12718521 0.018338839 -0.009368351 -0.066429935 0.0020718735 0.051537223 -0.0060035596 -0.089813836 -0.09708363 0.08279159 0.03935898 0.087444335 0.09455405 0.0632159 -0.1104063 0.06260452 0.06313782 0.08828596
zodat 0.11677885 -0.08394107 -0.013581199 -0.08907735 0.044453815 0.059228063 -0.0537447 -0.053772375 0.047323957 0.101394646 0.060857568 0.07057305 -0.026376527 0.10032418 -0.08421028 -0.04669783 0.11938164 -0.102939375 -0.08784741 0.05442313 0.12773497 0.087642856 -0.014547269 -0.09108104 0.04054187 -0.103771664 -0.005795663 -0.121498756 -0.12286108 -0.09421822 0.13453889 -0.10283027 0.14030045 -0.048981156 0.021091342 0.021469548 0.018747918 0.13828036 -0.13703783 -0.09791365 0.119988516 0.06336555 0.006947474 -0.084626794 0.08291962 -0.005326668 -0.09185441 -0.027895283 -0.082485996 -0.026696788 0.07254501 0.13299981 0.06478347 -0.04880615 -0.04487233 -0.12905705 0.020930374 0.0760665 0.06229659 0.12043085 -0.086618684 -0.012401109 -0.09590817 -0.046466436 0.11874315 0.08947588 -0.08598692 0.09327516 0.010666212 -0.13260967 -0.116970584 -0.018926907 -0.046027157 -0.093958944 0.08807006 0.11781554 0.085323796 0.09634562 0.058521323 -0.09837915 0.112382546 0.025854437 0.10238192 0.043566994 0.06606591 -0.038412847 -0.095524035 -0.039319996 -0.056774523 -0.13624364 -0.12855235 -0.00074725936 -0.089422554 0.078179866 0.08742967 0.0029577804 -0.11452117 0.03811214 0.07197419 0.13896342
zij 0.09238065 0.0018955052 -0.10539097 -0.014351573 0.048121095 -0.006875593 0.058130827 -0.08231065 0.004129755 -0.0012130559 0.114658244 -0.0036028207 -0.0046118633 -0.051848423 -0.058462266 -0.05613399 0.058639314 -0.08106889 -0.039314613 -0.03763449 0.062400095 0.08795658 -0.08457371 0.02892494 -0.106907286 -0.0851154 0.07325342 0.04869486 -0.13237907 0.06751167 0.105797224 0.008612511 0.076183885 0.098319985 0.037334234 0.028243022 0.05296439 0.09851468 -0.10935455 -0.07998603 0.09357879 0.09705976 0.08074914 -0.014719042 0.07428456 0.14599542 -0.099049196 0.05547478 -0.040234707 -0.03562644 0.10035142 0.10684885 -0.095377445 0.040766366 0.016291087 -0.055371195 -0.023786444 -0.011319449 -0.10416386 0.08916192 -0.120043464 -0.06268563 -0.14681059 0.09304804 0.11280478 -0.060916234 0.069945194 0.10005374 -0.063580915 -0.10208107 0.11912922 -0.084037885 0.06982154 -0.12439388 0.050581183 0.06957278 0.1230442 0.0035844357 0.049113158 -0.13534012 0.08534151 -0.07672526 0.1360797 -0.07835542 -0.07376915 -0.09572707 0.06500975 0.0063324105 -0.048660774 0.018193215 0.090689264 -0.005386971 0.012545636 0.117001615 -0.0018648341 0.05019666 -0.047904722 0.10543772 0.037153393 0.08404164
niet -0.0804774 -0.05322744 -0.092389435 0.085125685 -0.1167063 -0.056034714 -0.06146966 0.004059511 -0.08005407 0.013219852 -0.024405666 0.13977224 0.051791232 -0.051941838 -0.00017429618 0.08989188 -0.116485275 0.06859388 -0.116323456 -0.068658434 0.020937437 0.13831517 -0.05343085 -0.050860584 -0.123887904 -0.040595897 -0.012257291 -0.10084938 -0.059749123 0.047111984 0.04149643 0.005934724 0.13350408 0.101907045 -0.03446365 -0.09688105 -0.025681458 -0.029100342 -0.07677529 0.06692457 0.072701186 0.14694695 -0.026032927 -0.14366369 -0.063632935 0.15507561 -0.0974197 -0.10313977 0.01833098 -0.05633373 0.13567163 -0.0639323 0.004972647 0.1004717 0.14297824 -0.04418215 -0.088516966 -0.068094395 -0.10918182 0.053247724 0.0016201928 -0.0027037705 -0.07770055 0.13171686 -0.07503639 -0.004163574 -0.06943651 -0.033116564 -0.092697896 0.06718657 -0.02394202 -0.11380203 0.023241967 -0.01599266 -0.029155929 0.059729107 0.067478426 0.12611602 -0.0236267 -0.049627822 -0.031539865 0.10138505 -0.033362698 0.043195173 0.104007006 -0.13685393 -0.090377845 0.11218872 0.025246449 -0.112117976 0.014216032 0.08315418 0.030372333 -0.0119300075 -0.05627131 -0.09782393 -0.09789802 0.08988385 -0.09018797 0.14326918
alsnog 0.055934455 -0.061711263 -0.066462494 0.05382701 0.058129966 -0.042620674 -0.11093381 -0.071967475 -0.11216012 -0.086196885 -0.019099435 0.094398126 0.026754715 0.07978825 0.047820188 0.034961157 0.09237413 -0.07286332 -0.08136858 -0.06846005 -0.0038816363 0.07327639 0.034588568 -0.0029730923 -0.085241646 0.013649701 0.00039287168 -0.12543888 -0.049921073 -0.06535684 0.11643856 -0.08442798 0.12466346 -0.02161283 0.05223497 -0.035041597 -0.026061766 0.0667908 -0.09215721 -0.016128777 0.068123095 0.0972284 -0.031639054 -0.08797643 -0.030672504 0.08570862 0.008232453 -0.04816083 0.014402818 -0.05384305 0.07583914 -0.00866313 0.0123150395 0.044082444 0.03347833 -0.07153533 -0.11707222 -0.05685694 -0.08324811 0.040190224 0.021819254 0.024922336 -0.064981304 0.088989235 0.02220995 0.071953595 -0.022566589 -0.009279896 -0.052599445 0.0011904896 -0.035412855 -0.07331773 0.027300784 0.0034765897 0.07511989 -0.036501694 0.09322269 -0.018078223 -0.093836814 -0.0505378 -0.007997384 0.025764221 0.10939388 0.01852774 0.053347137 -0.099302754 0.0024434607 0.07116405 0.013262113 -0.08124359 -0.081390806 0.061821703 0.056294546 0.03937688 0.11087492 0.057825133 -0.0995612 0.023923889 0.001903491 0.06986089
naar -0.12165878 -0.14495467 -0.11013862 0.074845836 -0.07848991 -0.12516713 0.0045789904 -0.04720318 -0.0889585 -0.11290573 0.07373807 0.035284217 -0.009796357 0.05543692 0.09317867 0.1383306 0.1004245 -0.12803455 -0.09343251 -0.112668864 -0.12001464 -0.09181427 0.043080814 0.015202391 -0.11832429 0.04730688 -0.0747318 -0.1394497 0.046325605 0.14099191 0.14155024 -0.1581038 -0.066623084 -0.07705146 0.003073956 -0.13806409 -0.0859498 -0.058608375 -0.092080645 0.11004601 -0.07319342 0.1528507 -0.015038163 -0.11094173 -0.10892338 0.05219821 0.101349555 -0.0809026 0.041069716 -0.0054195947 0.03351099 0.018925652 0.05234334 0.07221182 -0.043361217 -0.09728008 -0.014387646 -0.114534006 -0.12891659 0.018571798 0.14699331 0.104148954 0.08127951 0.13003871 -0.07615032 0.056242358 -0.11286976 -0.049573656 -0.041780233 0.12325327 -0.15873367 -0.1005167 0.02377156 0.0015706291 0.1433877 0.06378846 0.11817044 -0.09627958 -0.117104314 0.06905962 -0.06823579 0.13376111 0.06393762 0.04976115 0.06390042 -0.13877428 0.11851653 0.12868412 -0.08312427 -0.13138467 -0.11141313 -0.033696104 0.07832755 -0.09537409 0.1380633 -0.046751637 -0.08892598 0.01841168 -0.04516419 0.054328036
het 0.18181093 -0.04940943 0.010424204 0.13904229 -0.17319347 -0.15512551 -0.17283334 -0.042828172 0.17932466 0.17617646 -0.05321859 0.0021571335 0.09321394 0.17015447 -0.05013412 0.018478168 -0.14824267 0.03250095 0.022752136 -0.14426903 0.026035935 0.18429935 0.15307075 0.10557484 -0.15211292 0.123028316 0.11404347 0.1169125 0.10991615 0.14995998 0.12187214 0.12532105 0.036043152 -0.009426279 0.099528976 -0.11123567 -0.13328569 0.06379469 0.13397138 -0.18883619 -0.007574289 0.13006651 -0.07549789 -0.07252297 -0.091837205 0.13151297 0.09956443 -0.12803093 -0.005492795 -0.13976696 0.118020974 0.13192439 0.1326309 0.12960322 0.10691323 0.16203935 -0.010614885 -0.07187508 -0.1468127 -0.098735735 0.11451094 0.14059883 -0.15661873 0.14949419 -0.088948905 -0.12147651 0.17719181 -0.15194046 -0.1056388 0.12667817 -0.119441606 -0.053943824 -0.12900639 -0.16381186 0.013589547 -0.07228075 0.042062037 0.14745532 -0.15093562 -0.099161536 -0.014664512 0.13205712 0.0863973 -0.13415177 0.12898791 -0.14885642 0.12865403 0.10308336 0.15718377 0.18136828 -0.120179094 -0.17757942 0.09065175 0.015517307 -0.04554367 -0.13091728 0.10153322 -0.11789992 -0.16907774 -0.0096432995
buitenland 0.056276016 -0.038553823 -0.034539066 -0.02330226 -0.0074625756 0.056033235 -0.097485535 -0.021442693 -0.047897745 -0.012110776 0.064907365 -0.0424482 -0.06115439 -0.014981401 -0.06592833 -0.06755096 0.014787782 0.061064046 -0.0644538 -0.038264237 -0.031369966 0.06290756 -0.075524926 0.052138347 -0.07343427 -0.0076399436 -0.008665181 0.00486795 -0.015564681 -0.007640844 0.06411332 -0.055641524 0.038747367 0.07465508 -0.035556186 -0.031672224 0.011859187 0.022411097 -0.009093015 0.028869824 0.03248152 0.040920813 0.056871247 0.034261245 -0.055494007 0.011101203 0.015263723 -0.037870992 0.035402562 -0.06000101 0.052595742 -0.01759481 0.022575747 0.06710225 0.020605 -0.061139595 0.0012806267 -0.021975456 -0.08056472 0.005962197 0.029390544 0.014286912 -0.09332884 0.068481386 0.01596227 0.013816833 -0.01796272 -0.011433805 -0.041774742 0.021250335 0.03964563 -0.09174805 0.021662066 -0.03355568 0.10925486 0.005725796 0.04403587 -0.055606678 -0.06613445 -0.055817828 0.08994655 0.0027454968 0.09864042 -0.05034173 0.018211054 -0.095996656 0.04312825 0.07496927 -0.032389343 0.022347825 -0.02942627 0.034480054 0.06637163 0.05710243 -0.016969956 0.045457054 -0.013706062 0.0034322904 0.054836333 0.032429393
kunnen 0.113176495 0.052649118 0.09467466 -0.035197098 -0.11126383 0.16245276 -0.08676012 -0.094481535 -0.121328 0.113996446 0.09900613 0.13360126 0.054398634 0.09735369 -0.117274374 -0.116760336 0.13643551 -0.052388106 -0.064888 0.10921237 0.13032134 0.060111478 -0.1269935 -0.14853847 0.1051175 -0.08072166 -0.089872144 -0.15518236 -0.16385114 -0.15832737 0.12578538 -0.06435678 0.11422176 -0.07716742 0.04556669 -0.081951536 -0.007079587 0.09862908 -0.1590865 0.031916544 0.09844117 0.057027627 -0.05316993 -0.019225659 0.052217156 0.05530488 -0.10213801 0.038555447 0.11528616 -0.12915257 0.060688347 0.1329946 0.12676375 -0.020330276 -0.103091404 -0.15909666 -0.05821368 -0.085063465 -0.006653213 0.13742346 -0.13255794 0.01768787 -0.06694416 0.02756903 0.0934544 0.063235745 -0.14260976 -0.02959912 0.032801036 -0.15200958 -0.039542723 -0.15745485 0.06707021 -0.07635585 0.14072818 0.07375316 0.042309064 0.052157443 0.048498098 -0.15122505 0.07923251 -0.03821374 0.08000394 0.096006505 0.077472866 -0.056552377 0.10651276 -0.07510488 -0.13652071 -0.1469875 -0.11585135 0.1380432 0.0856156 0.09674136 -0.12414978 -0.046028025 -0.14948772 0.10318168 0.04018236 0.13410932
vluchten 0.07861929 -0.06380543 -0.08578939 -0.030545583 0.04394394 0.03865085 -0.092391886 -0.013752352 -0.028745627 -0.003252543 0.055613205 0.038344324 -0.043897226 0.06175579 -0.064782694 -0.043884106 0.11358641 -0.094786994 -0.0862824 -0.02309372 0.0780914 0.0495933 -0.025671134 -0.051361572 -0.020837862 -0.0476365 -0.023899112 -0.120484084 -0.10112411 -0.0076538655 0.11517629 -0.05844098 0.1080333 -0.00651145 -0.015447441 -0.053447764 0.03612765 0.08518569 -0.11371838 -0.05681931 0.102552034 0.027939186 0.03726918 -0.027946182 0.012983791 0.052641038 -0.072027616 0.054310214 -0.010460253 -0.083969325 0.10874808 0.025706688 -0.0712112 -0.0030197906 0.011795728 -0.1114833 -0.04755291 0.018172897 -0.032093156 0.092709586 -0.04237164 -0.024977991 -0.049488086 0.009600301 0.07491585 0.07458349 -0.04886167 0.048388306 0.04469989 -0.056396972 -0.036807902 -0.049566302 0.0110351695 -0.010241748 0.09702475 0.056372944 0.009655225 0.058806192 0.029056372 -0.07640839 0.023869092 -0.03161293 0.09600978 -0.048307735 -0.013992437 -0.078419566 -0.015608209 0.01344504 -0.03264387 -0.07679633 -0.08535717 0.0697324 -0.04380061 0.0614283 0.08670003 0.040525634 -0.059859473 0.08884549 -0.030355405 0.10765775
om -0.00021037216 -0.04775851 -0.14352448 0.0803008 0.15743132 0.04372802 -0.08572026 -0.1612795 0.018323349 -0.13837709 0.1357788 0.12934117 -0.14780262 0.10197086 -0.12906416 -0.0939413 0.12043949 -0.13057107 -0.14528988 -0.07217311 -0.040633943 0.11654752 -0.0007117079 0.02893924 -0.123911254 0.052987732 -0.06550618 -0.1487509 -0.15627529 -0.057335313 0.09664622 -0.017341042 -0.04176868 -0.07510166 0.10299992 -0.11396415 -0.11186439 0.1352385 -0.12579381 -0.15165433 0.096656136 0.13941419 -0.027501142 -0.14039953 0.10901827 -0.10337544 -0.11463396 -0.04024963 0.013118041 -0.0795825 0.07983662 0.08758643 0.03621104 -0.08375567 0.15696925 -0.10019896 -0.13494386 0.13209623 0.038784295 0.14200656 -0.12950146 0.023886828 -0.11378898 -0.15574943 0.028366359 0.123887114 -0.09571301 -0.009937048 -0.08789876 -0.14926745 -0.007841735 0.008023275 -0.05236098 -0.07861629 0.13354027 0.06481676 0.07551387 0.08230807 -0.09901876 -0.01676342 -0.035200674 -0.14986852 0.15493605 -0.092668414 -0.05635641 -0.09461944 0.06673204 0.06725548 -0.059216186 -0.16132365 -0.11512093 -0.1129119 0.052240934 0.12072223 0.14843522 0.124134354 -0.009860016 0.1331476 0.012645425 0.13085404
daar -0.06088663 0.052848563 -0.04357742 0.005453863 0.01578616 -0.055432092 -0.12546177 0.03404364 -0.047062915 0.037731968 -0.038411394 0.08187981 0.08723985 0.023213636 -0.052121863 0.08912845 0.047611766 -0.11693684 -0.13410637 -0.089842916 0.07530447 -0.037795566 -0.04206296 -0.02985861 -0.12475295 -0.019767433 0.11922166 -0.068078674 -0.12269434 0.09485427 0.10909609 0.05289571 0.013876375 -0.0009453288 0.08252235 -0.13413776 -0.06982434 0.077123426 -0.108653896 -0.094695635 0.040876925 0.11031215 0.036200024 -0.09414422 -0.036901668 0.071127795 -0.047927517 -0.088208735 0.041623708 -0.054931395 0.10613975 0.0101266205 -0.0828771 0.08703994 0.041457836 -0.06796285 -0.069456525 -0.046123233 -0.057869382 0.013590834 0.027846824 0.1163245 -0.05352528 0.15340428 -0.044241212 -0.017739812 0.0021481183 0.07658383 0.035249602 -0.046420056 -0.04797099 -0.024758784 0.025760395 -0.008465418 -0.015257203 -0.01033404 0.06126714 0.09537332 -0.05065315 -0.08465205 -0.09599848 0.11524324 0.0820199 -0.061007097 0.033547655 -0.151134 -0.034779496 0.11263607 -0.0066728955 -0.09593412 -0.069901094 0.1418085 -0.027299564 -0.04313554 -0.010144422 -0.02109089 0.0029546823 0.111343 -0.113014355 0.08227473
als -0.085880704 -0.15384126 -0.036809105 0.08983411 -0.00911253 -0.0213293 -0.112793766 0.016270526 -0.07483561 -0.09300284 -0.11147338 0.0050455816 -0.04052371 0.101512924 0.0727703 0.12906308 0.11777648 -0.12441503 -0.14530729 -0.13168842 0.15058024 -0.025541581 0.15102062 -0.032932073 -0.11688831 0.00681488 -0.15095106 -0.114886895 -0.024069773 0.14394349 0.048450977 -0.14895111 -0.053422313 -0.11988782 0.024791742 -0.12414354 -0.090335414 -0.0447603 0.033345193 0.03432986 -0.08089673 0.09315876 -0.02023337 -0.12103666 -0.09252495 0.1023442 -0.005705407 -0.090559594 0.07785474 -0.08061021 0.13453212 -0.009564433 0.1188 -0.0054029096 0.0011508483 0.042163435 -0.115296856 -0.063992865 0.052993793 0.05503843 0.08248314 0.045700084 0.13721408 -0.080401324 -0.094662294 0.0744083 -0.08330092 -0.093214646 -0.12656702 0.09069537 -0.08333857 -0.1080685 0.124618225 0.09990304 -0.058510322 -0.040277842 0.08816488 0.087873936 -0.054423545 0.117473386 -0.08048734 -0.029465688 0.07407009 -0.018518312 0.11847554 -0.022178939 -0.007123997 0.008784503 0.14552978 -0.097768 -0.13045794 0.11190558 -0.0886776 -0.03271563 0.02549165 -0.15025885 0.10779307 -0.10733505 -0.122546464 -0.043500077
koning 0.042852692 -0.028625716 0.0574559 0.020173807 0.121962115 0.03393854 -0.10483113 -0.086027764 -0.10403393 -0.1270657 -0.10473254 -0.0014124155 0.0046977326 0.009779533 0.11302275 0.012161509 0.04703128 0.022460585 -0.07729365 0.0489283 -0.044333857 0.007484411 0.12352981 0.031359598 -0.016261857 0.07042832 -0.025032857 0.046521977 0.01586867 -0.07762378 0.03920324 0.010953432 -0.09484866 -0.005063224 0.030739948 -0.02477368 -0.03537508 -0.116928935 -0.01037803 0.10831139 0.04238785 0.058664095 -0.07310472 -0.047869764 -0.10218301 -0.0013410177 0.096239686 0.053945553 0.08039296 0.12083077 -0.031299222 -0.114687346 0.0039243135 -0.0036792702 -0.02521685 -0.09595589 -0.117543995 0.052461945 0.027856844 -0.09784541 -0.045755934 0.030913124 0.111012064 -0.017369216 -0.052992597 0.04921255 -0.10323767 -0.017481828 -0.053522073 0.08829067 0.044427853 -0.09155487 0.07320082 0.12675281 -0.025630517 -0.09913015 0.098887004 -0.10914447 0.041243017 0.09521369 -0.09199199 -0.04950371 0.10060495 0.032972924 0.008085225 -0.017270185 0.00935896 0.036503997 0.044862684 0.0013400977 -0.08718182 0.10737318 0.048803836 -0.062710434 0.0431335 0.1255937 -0.040200584 -0.08177025 0.009415555 -0.09197013
te 0.15324849 0.08055618 -0.11023369 0.053185727 0.15070337 0.1727602 -0.14223869 -0.16467118 -0.10113064 -0.111704856 0.026728204 0.14683664 -0.028176254 0.12191304 -0.13734372 -0.1686597 0.10374741 -0.15668632 -0.15837628 -0.124614954 -0.0059750555 0.15305595 0.09170567 0.07776477 -0.11514485 0.12693314 -0.14111724 -0.107901596 -0.16913137 0.10917019 0.07949359 0.12065854 -0.13364668 -0.14235239 0.09612361 -0.13846743 -0.12784582 0.1703086 -0.14609191 -0.16324529 0.13337146 -0.08779113 0.03690061 -0.1342933 0.14625947 -0.024167286 -0.16783865 -0.1062562 0.03269365 -0.12457256 0.06614925 0.10311065 0.1041401 0.07393626 0.0281148 -0.15582484 -0.17432268 0.16264269 -0.0966005 0.14986292 -0.17749909 0.12777063 -0.15855491 -0.16221173 0.0045421217 0.15121078 -0.15899 -0.13148353 -0.13945666 -0.17208095 0.12444701 0.15469584 0.10429975 -0.05202145 0.099531405 0.10056273 0.12502508 0.04978885 -0.11796229 -0.024908174 -0.045851454 -0.13694395 0.16891147 -0.12087981 0.033600878 0.018695362 0.13963285 0.058206495 0.0080831675 -0.121604145 -0.13779603 -0.03211631 0.13757719 0.16175497 0.15824576 0.13816628 0.04544923 0.1304008 -0.10518359 0.13649705
leven 0.114672765 -0.02810022 -0.0879587 -0.056508284 0.05694071 0.13719933 -0.006520677 0.08000368 0.06544275 -0.06250048 0.057446055 -0.06877272 -0.09507714 0.044078466 0.0034182835 -0.107796855 0.081681006 0.020635517 -0.019778522 0.12449101 0.009020745 0.03620541 -0.08168329 -0.07728394 0.06259012 -0.016194835 0.11061262 0.069681786 -0.10478647 -0.08808237 -0.0049540107 0.025130766 0.0682186 0.04608624 -0.017020058 0.0014081921 0.048265595 0.060649242 -0.048714828 -0.061654907 0.09765257 -0.08059687 0.041361723 0.071861155 0.0846198 -0.11303598 0.016191015 0.13139276 -0.060767837 0.034375574 0.12151924 -0.067156635 -0.117819875 -0.10151357 -0.013664222 -0.06425556 0.057754774 0.08656567 0.039700255 0.089226715 -0.10620973 -0.067113504 0.047939718 -0.09837058 0.05156975 -0.053345732 -0.018322444 0.013971185 0.08411992 -0.08426638 -0.016543519 -0.01276827 0.0500646 -0.011251618 -0.09234945 0.039319333 -0.06486116 0.020218482 0.11583582 -0.063119516 0.010162586 -0.12439144 0.017780751 -0.10901148 -0.07889405 0.07892897 -0.0739273 -0.06604623 -0.080050364 0.077617675 0.026879221 0.029454097 -0.11642505 0.06651598 -0.043337908 0.020152362 -0.0017861138 0.036584347 0.014824043 0.09090284
invloed 0.04986438 -0.031862356 -0.050300848 -0.048451014 0.032771233 0.050182734 0.035585754 0.087817736 0.008762221 -0.11183629 0.013955485 -0.09825493 -0.08669485 -0.050274476 0.06582147 0.045737613 0.005263456 0.060767792 0.040385354 0.124148004 -0.018138496 -0.032612137 -0.018610884 -0.040853307 0.043549903 -0.018184064 0.12185108 0.059720807 0.028431 -0.11460169 -0.05339097 0.037653334 0.048451565 0.07209361 -0.028004361 0.0871505 0.079122424 -0.060820106 0.02564848 -0.05009996 -0.0029131856 -0.040747173 -0.01867816 0.112741984 -0.047889985 -0.08344862 0.09078018 0.11777084 0.008824523 0.07034255 0.06607607 -0.12040063 -0.10095426 -0.05690757 0.026633661 -0.008936005 0.07107367 0.01368736 0.047750324 -0.03963 -0.054756198 -0.10469453 0.07152253 -0.09158065 0.08144999 0.001487268 0.08903742 0.05003197 0.08687583 -0.0011306921 0.03346125 -0.044836875 0.053161982 0.07785057 -0.062612206 -0.037445497 -0.044465635 -0.0944285 0.08868235 0.028170448 0.06669118 -0.094226 -0.06994587 -0.0383324 -0.11366581 0.10522477 -0.039172217 -0.0036618414 -0.09931239 0.09434691 0.07991713 -0.08338006 -0.05034182 0.0046779183 -0.026518304 0.011784019 -0.012259037 0.05387091 0.09342574 -0.053868424
van -0.09782999 -0.1658653 0.09043202 0.12299037 -0.10126857 -0.1390591 0.16000974 -0.04371642 -0.028348135 -0.051378753 -0.07827471 0.06931687 0.0065104947 0.12640405 0.11032378 0.13954003 0.12888728 -0.09725751 0.17411554 0.18825074 -0.096781366 -0.13286984 0.11382886 0.061703254 -0.10883447 0.087687284 0.060844116 -0.11499596 0.13203466 -0.1687215 -0.09974297 -0.12733291 -0.115240216 -0.028373253 0.10870315 0.06246942 -0.08520145 -0.12064567 -0.10196247 0.119344264 -0.13350552 0.05291565 -0.11884063 -0.06989948 -0.1385339 -0.17532521 0.14610186 -0.07692651 0.13175777 0.041368447 -0.08477295 -0.16706185 0.12479082 0.07846305 -0.11682075 0.16587898 0.19141638 -0.13319665 -0.10842293 -0.14216311 0.13102598 0.089220405 0.12671654 -0.1138736 -0.08452994 0.11622606 -0.01927935 -0.072452836 -0.11668008 0.12888367 -0.14524193 -0.13932717 0.055871453 0.13222055 0.12570335 -0.13034719 -0.016500724 -0.124863766 -0.10557481 0.12399878 -0.017617838 0.04837102 -0.16396587 0.006335637 0.057652462 -0.11769633 0.119879425 0.08185345 -0.12793715 0.014209038 0.08936889 -0.018391076 -0.015167261 -0.13926539 0.13638416 -0.008377615 -0.14427876 0.16285402 -0.010833676 -0.13768718
neemt 0.086021796 -0.0054125795 -0.11019925 -0.06783491 0.08036641 -0.048674226 -0.11544476 -0.03550691 -0.02263522 -0.11593167 0.029801002 -0.0033634335 -0.08536917 -0.050105963 0.038001675 0.074406914 -0.022518229 0.057092465 -0.12868708 -0.024394458 0.12727432 0.14822347 -0.09659893 -0.02799573 -0.10456658 0.05574053 -0.017944407 -0.120882824 -0.0054479404 -0.017432341 0.048766762 0.0745313 0.051277272 0.028330328 0.00630848 -0.071436115 -0.06621028 -0.055247247 0.07228963 -0.054121047 0.1045235 0.033844456 0.020000504 0.09513048 -0.041790467 0.078343935 -0.14752592 -0.010413628 0.054082368 0.13231847 0.13456577 -0.10929094 0.08027694 -0.12779249 0.047898076 -0.090115614 -0.1033111 0.04836031 0.07224508 -0.004761724 -0.14840932 -0.06656465 0.032353222 -0.0006491892 0.073698215 0.12731384 0.14896293 -0.03648556 0.02286156 -0.08924128 0.101337716 -0.09929028 -0.02549044 -0.01425669 -0.011955141 0.09432536 -0.0006523065 0.07811466 -0.08878002 0.05435351 -0.07221815 -0.086198755 0.12636946 -0.10329047 -0.09648609 0.03345707 -0.014933259 0.04702454 0.10900958 -0.041963294 -0.064889565 -0.13438003 -0.08051519 0.075986125 0.09153034 0.12963122 0.10553309 0.05269913 0.096645355 0.088299446
toe 0.057029758 0.033427447 0.0151926195 -0.09986574 0.06012807 0.055687215 0.009304717 -0.047472525 -0.025927207 -0.04052314 -0.011887856 -0.043817475 -0.039968587 -0.118649356 0.05555619 0.053107653 -0.07402423 0.10725105 -0.06620712 -0.1017324 -0.0067741773 0.07603895 -0.07220095 -0.0051446585 -0.0598093 -0.04529777 -0.10086571 0.06679894 -0.005148692 -0.01554179 -0.11473226 -0.04643933 0.07316927 0.090494595 -0.031455364 0.064525925 -0.012352367 -0.007723307 0.0043464145 0.053452685 -0.034844086 -0.053515606 0.020517493 0.025980253 -0.03369651 0.11246915 0.021238953 -0.07182213 -0.0028452203 0.014923242 -0.029727316 0.059581477 0.059303556 0.0070201545 0.0046894304 0.008990823 -0.06639384 -0.06554203 -0.06553257 -0.030542802 -0.033870883 -0.044243336 -0.08285334 0.02269798 -0.08708554 -7.2871764e-05 0.035824027 0.08385273 -0.055048954 -0.05917976 0.07794434 0.077702485 0.04043693 -0.013230892 0.0047741914 0.05010703 0.09678644 -0.08874589 -0.08327802 0.04832027 0.07466109 -0.06417757 0.06665257 -0.06293512 0.007863739 0.020222917 0.045030367 0.022916587 0.032545544 0.084566824 -0.031198278 -0.09987742 0.0420537 0.10838146 -0.10695721 0.05548779 0.01156476 0.09197433 0.10830005 0.068720095
dit 0.12111542 0.04002485 -0.14269665 -0.11444182 -0.016805623 -0.12974699 -0.09639696 0.07493915 0.13247147 0.09665393 0.008004497 -0.023201328 0.08661661 0.07794525 -0.10145267 0.07863645 -0.12005044 -0.060017813 -0.15299338 -0.1509129 0.121537104 0.043233935 0.038462233 -0.04785938 -0.10753228 -0.11123892 -0.11187958 -0.09252157 -0.013784437 0.15324515 0.08492391 -0.13256636 0.117363945 -0.14593826 -0.10109693 0.016618725 -0.06900063 0.1498781 0.032272406 -0.100947395 0.12753332 -0.10146415 0.10985493 -0.09460127 0.09130334 0.098505005 -0.11448949 -0.16130467 -0.040815994 -0.015277898 -0.03847361 0.15536043 0.09931165 -0.0016962445 -0.017717615 0.10656103 -0.029430136 -0.00815736 -0.019645987 0.12555382 0.0035919258 0.07768462 -0.14536871 0.075594515 -0.07397735 -0.0054882024 0.11994242 0.04809206 0.0096756965 -0.003439509 -0.14345491 0.1507221 -0.10034866 -0.11161436 -0.06365734 -0.011842806 -0.11098557 0.148093 -0.039656527 0.032740805 0.07868392 0.13947356 -0.06621007 0.07859627 0.11042034 -0.05169518 -0.0270488 -0.02247707 0.14283054 0.040794324 -0.07513794 0.03251717 -0.0053487406 0.091354474 0.02570946 -0.062123347 0.06252605 -0.009434685 -0.1392915 0.16013339
probleem -0.037209608 -0.10850352 -0.07658901 -0.03299526 0.015538567 -0.07215056 -0.14261247 0.114957325 -0.07474658 0.006739107 0.013085433 0.06781032 -0.10610706 0.07247987 -0.0037530987 0.11697648 -0.04633023 -0.012816788 -0.12836061 -0.14336511 0.14935364 0.12300541 0.08909909 -0.112405494 -0.13378225 -0.10696806 -0.06430207 -0.122668035 0.006625311 0.120087706 0.0046536042 -0.12019612 0.075117275 0.011957883 -0.1084546 -0.06033553 -0.02174217 -0.036445826 -0.02820725 -0.06984828 0.08403128 0.07147684 0.13140139 -0.11894603 -0.068162166 0.119812146 -0.1286031 -0.086038895 -0.067016765 0.13154963 0.1301759 -0.0584006 0.08939903 -0.06441909 0.0378283 0.027774222 -0.089813374 -0.07641443 0.07163456 0.043729845 0.011762254 -0.031007105 -0.08792351 0.09985411 -0.06974021 0.12262799 0.12447212 0.08489731 -0.015359965 0.012294361 -0.068216115 -0.040125877 -0.110635474 -0.05481644 -0.073888846 0.09659093 0.09635001 0.020417728 -0.07634166 0.07282836 -0.042628244 0.033973876 0.07496557 -0.13545574 -0.014912001 -0.09444965 -0.08917351 -0.0066136047 0.13658902 0.06626952 -0.084492445 -0.04226995 -0.025464559 0.01875823 0.0534804 0.059626725 -0.0006737012 0.114309035 -0.08665531 0.11748
raakt 0.09856551 -0.040232137 -0.11989709 -0.088916525 0.022766925 0.07360523 -0.030226931 0.11716067 0.066179425 0.08256752 0.08202978 -0.067541376 -0.09977804 -0.040066358 -0.07944853 -0.041583315 -0.02349879 0.074356474 -0.07754576 -0.06274296 0.10909556 0.10782884 -0.09534768 -0.11296756 0.06222569 -0.1143659 0.03382831 -0.0048747947 -0.10906915 -0.010553146 -0.048967496 -0.035873868 0.12288683 0.07492564 -0.09716055 0.089697964 0.09587607 0.108403675 0.030258497 -0.083979554 0.11912732 -0.07446422 0.117482014 0.033796646 0.102443166 0.040792245 -0.10486219 0.03460652 -0.104084045 0.12142491 0.11868584 0.09071746 -0.054890506 -0.11833643 0.085590534 0.024424031 0.05520487 0.072887115 0.08882597 0.11654789 -0.088089235 -0.1015672 -0.10847897 -0.062049627 0.06674302 -0.047964618 0.11619446 0.08860605 0.08874862 -0.10760756 -0.08154306 0.07483249 -0.088314444 -0.095585555 -0.1236148 0.12096591 -0.0867884 0.10800581 0.09070424 -0.09185192 0.08291605 -0.060503673 -0.077495776 -0.111764364 -0.0890478 -0.004063281 -0.117522284 -0.11762271 -0.0666544 0.06677374 0.037999205 -0.049330965 -0.111611106 0.112618074 -0.08021034 0.05327954 -0.0013344667 0.10777966 0.038162112 0.12344896
alleen 0.12844366 -0.06268433 -0.07579252 0.083293006 0.008704726 0.12317782 -0.12429984 0.052938465 0.06921103 -0.099425025 -0.023256553 -0.017825305 -0.03199355 0.067360595 -0.047865946 -0.13260211 0.03463268 -0.07264512 -0.11670637 -0.06307011 0.10754357 0.08247474 -0.11559534 -0.050679043 -0.057305742 0.04865363 -0.056708835 -0.009704827 -0.1387804 -0.05917777 0.0100142155 -0.040001947 -0.019281153 0.01329631 0.022116438 -0.06516923 -0.007659396 0.12155734 -0.11097584 -0.057030354 0.04648781 -0.059704088 0.09604468 0.0076927454 0.110925995 -0.028601468 -0.11086067 -0.07304539 0.041194845 0.027276313 0.06371812 -0.07435249 0.09805743 0.01264114 -0.055681016 -0.11715592 0.02526952 0.045469016 -0.057871595 0.047121108 -0.12679285 -0.037411626 -0.042107992 0.0659039 -0.07576229 0.10047915 -0.074601546 -0.107715786 -0.09141196 -0.11806657 -0.011246017 -0.13925679 0.057051267 -0.10637881 -0.096285455 0.02601838 -0.012541535 0.032655917 0.054872837 -0.12649 -0.09502724 -0.07139607 0.037556857 -0.12857765 0.043894693 0.027894847 -0.099078074 -0.013094617 0.032443315 0.09317434 -0.085529074 0.12379844 -0.093616255 0.12402684 -0.06199071 0.022160511 -0.031558458 -0.04691445 -0.118472666 0.09477974
veiligheid 0.12603463 0.01780757 -0.1005784 -0.009327042 -0.062332336 0.12674877 0.01234599 0.108056344 0.12865126 0.07740117 0.10856908 0.044684764 -0.064749666 0.10777273 -0.11624802 -0.14456859 -0.030377736 -0.04869415 0.010400864 0.04755395 0.1322277 0.06334167 -0.10277058 -0.04989434 0.08545202 -0.0660082 0.042138126 -0.003247947 -0.13427457 -0.109560855 -0.07842354 0.008927736 0.04635312 0.024714565 -0.10341049 0.10455836 0.08245422 0.120641604 -0.09475506 -0.07110172 0.091768585 -0.12180014 0.066780664 0.060186353 0.13977228 -0.09627665 -0.12446361 0.09479476 -0.053042445 0.011319704 0.08974156 -0.05312081 -0.0097511085 -0.09676322 -0.10462432 -0.045589138 0.11427407 0.1098192 0.10812313 0.11676491 -0.1448863 -0.07640228 -0.051290356 -0.10953933 0.0048537427 0.06612766 0.05267495 -0.05838605 0.062281292 -0.14475901 -0.01161812 -0.11455397 0.008030605 -0.09114182 -0.021838203 0.0605478 -0.117706686 0.07416117 0.084752075 -0.12996407 0.0030843331 -0.051708784 -0.09744197 -0.11674995 -0.08124559 0.12913689 -0.0088079525 -0.116869986 -0.1178255 0.09730228 0.019917024 0.014722383 -0.11716966 0.12535143 -0.13830271 -0.08428809 -0.04389775 0.044889677 0.02510306 0.12438812
maar 0.082742125 -0.15953119 -0.14605309 0.07410313 0.030208975 -0.060445413 -0.15011735 0.097890675 0.12411378 -0.004580023 -0.08185468 0.036860052 0.061252385 0.045893405 -0.11135826 -0.009457853 0.06744798 -0.085342646 -0.1397119 -0.13441484 0.0076265866 0.12954141 -0.08668485 0.04627655 -0.12108535 -0.05746888 -0.07132172 0.03534632 -0.1426206 0.17539804 0.080192626 -0.118191324 -0.099482074 0.010850381 0.008088739 -0.12795247 -0.081974745 0.09118971 -0.0931442 -0.09747697 -0.075595506 0.11560096 0.13857183 -0.07080062 0.13329588 0.014137427 -0.15461196 -0.119630806 -0.047761098 -0.12504524 0.06627794 -0.032699317 0.14420874 0.12504973 -0.05273954 0.050055005 -0.0821549 -0.048644044 -0.10889845 0.055276267 -0.012708539 0.09633415 -0.14801894 0.12519196 -0.10995998 0.06659592 -0.06981156 0.06413763 -0.15964273 0.074467175 -0.1391919 0.04891831 -0.13955964 -0.11071441 0.018473936 -0.012715508 -0.06613836 0.13130091 -0.008387008 -0.14844793 -0.015324777 0.0028822226 -0.04853542 -0.14305873 0.07110751 -0.1314789 0.031061294 0.08424765 0.1442111 -0.013766042 -0.10590917 0.13253884 -0.03795614 0.13861221 -0.009469587 0.011029854 0.030466938 0.093159325 -0.16456932 0.06951534
steeds 0.056591872 -0.13133083 -0.07341802 0.088832565 0.0068116616 0.026783105 -0.07846748 -0.058814034 0.13380876 -0.049798373 -0.022425378 -0.07594466 0.08014076 -0.013819807 -0.1015502 0.019532578 0.09536018 -0.109288506 -0.1392576 -0.14512588 0.12989685 0.09240868 -0.12789217 0.079718925 -0.07366948 -0.074161746 -0.05183541 0.06608992 -0.1340006 0.1217905 0.12018818 -0.02400752 -0.10484872 -0.055525877 0.10377316 -0.13358715 -0.0451661 0.035781782 -0.10753402 -0.022256166 0.070313826 -0.039338738 0.047542453 -0.100707404 0.12741831 0.026562294 -0.14769319 -0.10550601 -0.006874883 -0.04192884 -0.06786377 -0.03461436 0.1107228 0.10890444 0.029264526 -0.022033919 -0.12500629 0.013790888 -0.0114249475 0.09097285 -0.11900923 0.036457043 0.032706995 0.07796476 -0.061434794 -0.0020564937 -0.10877613 -0.035002284 -0.1254179 0.027155804 0.114102624 -0.11661638 -0.0021495952 -0.123451956 -0.052660212 0.060366973 0.037835594 0.06484385 0.0973104 -0.13489941 -0.11551201 -0.052230433 0.04829965 0.0047251265 -0.0074548824 -0.06754688 0.029825212 0.038826235 0.048729647 0.010064897 -0.00071743445 0.15260825 -0.0755671 0.1454848 -0.02603575 0.09585249 0.038547937 -0.049405046 -0.11215088 -0.028447893
meer -0.037108555 -0.12772813 -0.15922031 0.09467293 0.13104193 0.1190028 -0.135779 -0.112329416 -0.15092424 -0.15981631 -0.08637919 0.0036681122 0.06684592 -0.110608585 0.07038216 -0.05934645 -0.05290253 0.07683325 -0.14492805 -0.108716205 0.06448921 0.1515776 0.021138404 0.084264554 -0.1049406 0.11597742 -0.10321427 0.0756014 -0.05094471 0.117042325 0.0007949415 0.027299944 -0.062023353 -0.005845337 0.107417546 -0.08486826 -0.033754233 -0.090525016 0.046775363 -0.13358681 0.068730064 -0.03057666 0.065745644 -0.0802847 0.027471913 0.1472348 -0.09204978 -0.045418862 -0.08425501 0.089543365 -0.005596443 -0.085389666 0.09585805 0.06883441 0.09165613 -0.116745904 -0.15725635 -0.10498251 -0.05126403 0.061903443 -0.061210908 -0.022972262 -0.082002334 0.102004446 -0.052523784 0.11036563 -0.1502814 0.005052358 -0.119341865 -0.056211036 0.1507388 -0.10031823 0.12462749 0.12608254 -0.12376624 0.0022159684 0.16526942 -0.08673347 0.12282867 -0.02969019 -0.088731796 0.017784933 0.13788441 -0.06353073 -0.030701648 -0.092152715 -0.03574109 0.047741614 0.06696432 -0.09103579 -0.092337504 0.13418339 0.11395223 0.14344837 -0.11214491 0.15143949 0.10286759 -0.080998704 -0.00890666 -0.031953238
democratie 0.09114972 0.05058116 0.041533045 -0.08692075 -0.081449986 0.09128521 0.12894337 -0.022209067 -0.0177738 0.021335427 0.05085223 -0.07956209 0.012033028 0.031497765 0.027752982 0.0049310303 0.06881162 0.058824953 0.10270437 0.080348946 -0.022417914 -0.115230955 -0.051002584 -0.080304444 0.11635587 0.050624695 0.037326626 0.08410689 0.036783088 -0.12651885 -0.11386563 0.05636111 0.11656023 0.06706145 0.029137254 0.04388652 0.04093954 0.020387601 0.018917613 0.08090282 0.08183492 0.047937114 -0.05332551 0.041881666 -0.016920302 -0.104596704 0.100919455 0.080213755 0.00909564 0.032722645 -0.04400992 -0.05027979 -0.024571583 -0.023839206 -0.043570098 0.0753303 0.06329428 -0.006720412 0.06644451 -0.02562832 0.0055805426 -0.003278888 0.040146545 -0.05764952 0.0075749364 -0.057372745 0.021053175 0.016912917 0.05081668 -0.07388565 0.0006087873 -0.07579761 0.08285529 0.09381873 -0.023269804 -0.009677488 -0.110346705 -0.06276916 0.12592092 -0.0029347383 -0.049635567 0.033078853 -0.08816427 0.054870494 -0.034490384 0.10812851 -0.05285416 -0.09274895 -0.112358 0.097542405 0.12318076 -0.011650073 -0.084790096 -0.061370596 -0.09787523 -0.0550713 -0.022665793 0.06995018 0.036603637 -0.007856517
rechtstaat 0.102818914 -0.032852825 -0.079533316 -0.06592508 -0.06412766 0.04028594 0.062613934 0.11257094 0.07196845 0.08735615 0.035291575 -0.06805563 -0.024607962 0.023900226 -0.0240616 -0.020584289 -0.009234705 0.08392635 0.02379466 -0.010120217 0.11280145 0.006188628 -0.046805825 -0.07086515 0.055644635 -0.04462263 -0.009716888 0.07235417 -0.08169813 0.049216293 -0.110016465 0.013420452 0.06689914 0.07317996 -0.062135845 -0.0005583635 0.034563392 0.07386227 0.045980513 -0.06657936 0.09313526 -0.020727258 0.07191824 0.002652868 0.07987532 0.01666872 -0.054309897 0.055238012 -0.07803259 0.027277578 0.10122805 0.081503846 -0.016206494 -0.085074775 0.050934855 0.08844725 0.09734154 0.08365569 0.07940846 0.08980354 0.013861038 -0.03278206 -0.06661363 0.01942914 0.040416423 -0.09394185 0.012679724 0.03585542 0.09142383 -0.072245695 -0.06602455 0.0336836 -0.08664169 0.018794684 -0.06987949 0.064715356 -0.04727378 0.081393 0.0686411 -0.10128044 0.006550031 0.014229045 -0.10220771 -0.07454183 -0.008214265 -0.013836103 -0.08724475 -0.08385499 -0.032108568 0.068171 0.058967404 -0.016255677 -0.073857486 0.051022403 -0.122821 0.013195607 0.0051167323 0.051630903 -0.043458506 0.072370045
wie -0.075100206 -0.11553092 -0.007094093 0.010778474 -0.14338693 -0.08160858 -0.0644493 0.0682598 0.020315766 0.050377756 0.07899379 0.0156206675 0.09389122 -0.056200612 -0.05343352 0.07079525 -0.07607597 0.081967406 -0.061598 -0.12999728 0.014719465 0.024513692 -0.1072119 0.021642338 -0.104903676 -0.07569818 -0.08427169 0.09284146 0.005138585 0.14608046 -0.12024738 -0.037785783 -0.062599376 0.08479518 -0.054249138 -0.119340286 -0.092210665 -0.04398726 0.037837233 0.042643614 -0.07738788 0.08572065 0.13337474 7.006402e-05 -0.120233 0.15983069 0.106738865 -0.10308714 0.01954555 0.108073846 0.14729545 0.04755736 0.122169666 -0.0023084346 0.09287363 0.086018324 0.030817421 -0.109206714 -0.08007866 -0.06906948 0.09259433 0.054967478 -0.15069246 0.12294863 -0.11400421 -0.07244095 -0.052263547 0.023080263 -0.020201376 -0.0005133727 0.02489327 -0.04833576 -0.04918545 0.045032114 -0.078611866 0.024131982 0.08866497 -0.08169001 -0.07082525 -0.100902684 -0.02956813 0.02109979 -0.057937816 -0.0835333 0.106031336 -0.14562213 0.03937906 0.008132444 0.07419834 0.12978525 0.033080574 -0.04671199 0.070882685 0.029578887 -0.095876485 -0.06652371 0.06116388 0.095415 -0.05103551 0.09963446
is -0.10811902 -0.16444436 -0.029206654 0.072925046 -0.13886486 -0.14646 -0.0927125 0.14712398 0.022029452 0.16102327 -0.041356817 0.12557268 0.051948596 0.15218855 -0.0940215 0.07146705 0.08137703 -0.118908405 -0.06592374 -0.05483041 0.16632727 -0.13549367 0.13173242 0.023653608 -0.06827221 -0.021255122 -0.10265563 0.07347795 0.05344194 0.14590439 0.061663732 -0.13816796 -0.06498907 -0.103632525 -0.11452683 -0.15045922 -0.057170495 -0.005459336 0.012574273 0.011644846 -0.06436516 -0.033583704 0.0839561 -0.13494697 -0.012320965 0.1279164 -0.0136968 -0.037898283 -0.10828632 -0.044247925 -0.026522702 -0.101314686 0.045567974 0.019269414 0.049979363 0.16251431 -0.028978612 -0.07368909 0.09249528 -0.07491993 0.14528404 0.11916784 -0.15120175 0.12782314 -0.108492754 0.08928342 -0.10464652 -0.0076848036 -0.09710149 0.12241738 -0.17293078 -0.14759286 -0.17519262 0.10895663 0.016733142 0.07207432 0.101344034 -0.03542497 -0.09888126 -0.0068570306 -0.07321932 0.15112254 -0.15877421 -0.051478382 0.14282313 -0.15737776 0.08320336 0.0038575735 0.11277074 -0.06929141 -0.007342058 0.013088706 0.015859386 -0.090054125 -0.10117157 0.15749176 -0.10680518 -0.10688911 -0.16795641 0.11765969
land 0.083231 -0.14493388 -0.09714186 -0.02049624 0.047039185 -0.022805883 -0.13549934 0.05822136 0.058261406 -0.017952062 0.01635497 -0.08602829 -0.010986688 0.082392655 0.023821045 0.0035906385 0.10414625 -0.10421082 -0.11516852 -0.111156866 0.058095723 -0.025207315 0.03848878 0.03225151 -0.09181429 -0.011795887 -0.02766402 -0.07697026 -0.0437589 0.11300912 0.10895763 -0.10579964 0.08899151 -0.089436665 0.0438988 -0.089669906 -0.027236905 0.048067026 -0.09817568 -0.045012705 0.04947287 0.074266054 0.076945804 -0.022183795 0.05440982 -0.011489697 -0.05158781 -0.0064004054 -0.049276367 -0.007002187 0.09815834 -0.021978265 0.028148105 0.016118806 -0.08872304 -0.08290639 -0.046031866 -0.032280747 -0.046444524 0.022798952 0.05956897 -0.03205963 0.06325942 0.081395164 0.04701949 0.07566366 0.014601334 0.021545945 -0.058760386 0.0691258 -0.0599988 -0.097748384 -0.0465523 -0.038920328 0.0475766 0.010091348 0.008183701 0.0009395573 0.0006266401 -0.0132807195 -0.025515495 0.008555186 0.042388014 -0.042861536 0.043050744 -0.083660446 -0.062373947 0.003180484 0.12747383 0.07563939 -0.10997815 0.096991576 -0.06475486 0.07167125 0.10614849 0.06743615 -0.02960901 0.012675762 -0.115258634 0.050484966
nog -0.04162746 -0.09296504 -0.1304639 -0.14516796 0.04784127 0.00399258 -0.10607548 0.099167466 0.13051327 -0.029829009 -0.012426014 -0.13827217 0.040841043 0.065273486 -0.09190375 -0.042737726 -0.059749644 -0.13288447 -0.12503086 -0.15895204 0.008063765 -0.06379134 0.08174455 -0.046421356 -0.13972197 -0.045320973 -0.12207201 0.048446022 -0.007716082 0.12503089 0.03266325 -0.11834455 0.0045597753 -0.10172337 -0.044812635 -0.12502202 -0.08751277 0.13249566 -0.030836811 0.024297636 0.10104499 -0.024701184 0.14257024 0.005003595 0.08874395 0.008617836 -0.099104345 -0.08090145 0.010745924 0.022672717 -0.017216515 0.045639668 0.09594323 -0.01483263 -0.045348246 0.11133676 -0.076363444 0.13414486 -0.03991368 0.07471117 -0.039661627 0.09064457 -0.11126561 -0.02561285 -0.061241027 0.06159585 0.09777736 0.06757534 -0.0076927394 -0.03504972 -0.15558696 0.10815425 -0.064394996 -0.10108951 -0.051327948 0.00064432627 -0.06131464 0.123585895 -0.0073314887 -0.047019787 -0.059700005 0.053543627 -0.10405806 -0.07609279 0.07726634 -0.046960592 -0.09918522 -0.06584593 0.10895459 0.059017234 -0.10966757 -0.037861776 -0.06923057 0.13503464 0.06401581 0.07799323 0.09540037 0.015139437 -0.1440583 0.10904458
baas 0.04725969 -0.09787293 -0.07915322 -0.062919155 0.066352725 0.054421857 -0.013048255 0.05438561 0.018524505 0.07041257 0.042167768 -0.053938936 -0.059336845 0.08351499 -0.011449168 0.015599554 0.027242009 -0.09397804 -0.094224386 -0.033668175 0.063528664 0.01870121 0.036002364 -0.08809484 0.012168052 -0.03391949 -0.029204644 -0.08876641 -0.051279243 -0.026293801 0.048142422 -0.07596924 0.08812311 -0.010128242 -0.013864623 0.038546756 0.046393808 0.07010024 -0.05507392 -0.025810866 0.08698365 0.05979381 0.079817444 0.015892902 0.031203745 0.0061861263 -0.049796622 0.006865504 -0.03981175 0.07136018 0.08808368 0.04677374 -0.033995412 -0.07668682 -0.046657853 -0.045435082 0.026655177 0.0993441 0.07952745 0.048192695 -0.038654048 -0.05445836 -0.012647359 -0.07736018 0.023866287 0.046430327 0.03826477 0.03508209 0.05415428 -0.057185713 -0.08923493 -0.010038835 -0.010858476 -0.020870522 -0.08908716 0.039733365 -0.04709435 0.06840224 0.05945043 0.005506242 0.024125041 -0.015918538 -0.04920243 -0.031074991 0.01272474 -0.012812158 -0.0901143 -0.08724335 -0.0007338618 -0.012371653 -0.009359727 0.044838723 -0.07395891 0.04655756 0.07392807 0.020199152 -0.029930562 0.038753826 -0.02544735 0.076474555
we -0.051453274 -0.1217764 -0.024138765 0.099073365 0.025975812 0.16772835 -0.0930305 -0.11204583 -0.15479793 -0.10133373 -0.08398351 0.14872691 0.062368043 0.095284745 -0.034165587 -0.04034764 0.14466062 -0.15590006 -0.14977531 -0.16070728 0.16351245 -0.10387041 0.04494964 -0.12512644 -0.1021233 0.037997615 -0.14747971 -0.15152888 -0.17655352 -0.029796798 0.16375467 -0.1570028 0.16283369 -0.13272364 0.066229366 -0.13656187 -0.015571728 0.16586156 -0.17050377 0.04242837 0.12071627 0.16454586 0.051904038 -0.14991565 -0.0039286027 0.13245372 -0.17402859 -0.0791797 -0.0344651 -0.15874532 0.042052645 0.15934509 -0.1515099 0.087013975 -0.054310396 -0.16963123 -0.14548361 -0.06591386 -0.06365159 0.16664745 -0.12053666 0.04051509 -0.04566255 0.10456612 -0.07768677 0.14360346 -0.1374366 -0.09470343 0.002169611 -0.16914916 -0.10452799 -0.15242289 0.02469032 0.054442737 0.11167483 -0.01768653 0.09888448 0.117299035 0.041971065 0.11603158 -0.1170553 0.112576485 0.1396336 0.09721244 0.11600601 0.02052095 -0.042879462 -0.1527658 0.111257866 -0.15998077 -0.13763428 0.15974069 0.10731804 0.035831314 0.12602489 0.075433314 -0.13742355 0.0031804133 -0.13311136 0.17409986
moeten 0.00068975234 0.039463475 -0.053802185 0.030414479 0.12356546 0.10029158 -0.016710347 -0.06293842 -0.14335555 -0.08114389 0.04804672 0.099809006 -0.026789077 0.07677186 0.08111955 -0.06742914 0.05618314 -0.083638534 -0.13129795 -0.007741423 0.10423571 0.035627253 0.09648128 -0.060744457 -0.016139321 0.045242477 -0.09325282 -0.12305042 -0.09279596 -0.08180018 0.027290069 -0.109898254 0.12744924 -0.1316322 0.117627785 0.06322616 0.04190127 -0.037113775 -0.052774865 -0.04219995 0.09869646 0.12525745 0.035354264 -0.07860475 -0.0024079783 0.11222861 -0.12523243 -0.053689208 0.021684943 0.05795379 0.02122345 0.0059158565 -0.0804541 -0.05370149 -0.08013367 -0.12577471 -0.15663719 0.10448731 0.10791171 0.07423926 -0.10495256 -0.06490862 -0.054402377 -0.065069675 -0.04091429 0.13098739 -0.046438914 -0.061885405 0.01433779 -0.12621747 0.11042618 0.0074980916 0.11163847 -0.09149018 0.022075152 0.06537104 0.09949146 0.09990152 0.07576063 0.02331646 -0.037351497 0.0010554094 0.12308253 0.065514885 0.06302507 0.06365545 -0.12579831 -0.038871754 0.08671875 -0.09646721 -0.0903915 0.024912842 0.09365422 0.1023833 0.114176616 0.053198628 -0.006150231 0.005193661 0.009899696 0.1281193
daarom -0.123837724 0.13609341 -0.14542449 0.021716613 0.009823932 0.10248746 0.045821045 0.08709584 -0.10876588 0.042666983 0.08499758 0.12406145 0.13498886 0.099487014 -0.018093182 0.06585596 -0.061902024 -0.10002401 -0.12316358 0.06830682 0.12553322 -0.11582763 -0.11331269 -0.12797941 -0.018086262 0.08111353 0.1036542 -0.09427848 -0.13444774 -0.08322927 0.11350709 0.08575489 0.13601759 -0.07899919 0.078538135 -0.1147468 -0.06424656 0.11903717 0.021737086 -0.15996781 0.1292262 0.13933954 -0.049690396 -0.12878914 -0.023508681 -0.1259789 -0.10265403 0.15075296 -0.055229187 -0.072439134 0.122002654 0.13965356 -0.14358261 -0.09229403 0.06600105 -0.09316998 -0.007067968 0.08343473 0.077824846 0.12254313 0.02596819 0.06822236 0.041148737 0.14349502 0.09806933 -0.07536402 -0.123313315 0.034479473 0.15289286 -0.08516937 -0.10954836 -0.06252611 0.034572054 -0.0444674 -0.08103313 0.041532617 0.037700195 0.16772051 0.084605716 -0.052920185 -0.07586794 0.1551677 -0.09015782 0.09784312 0.10611277 -0.08632999 -0.1557037 0.051812414 -0.14578745 -0.15629146 0.08640382 0.16170712 -0.12545095 0.036119163 -0.018952848 -0.04924451 -0.09991742 0.069343716 -0.14086473 0.11923062
optreden 0.093034595 0.06745242 -0.0779171 -0.077867374 0.047830585 0.07005471 0.05612253 0.081158765 -0.060790922 0.06774482 0.08208756 0.024774523 -0.06678069 -0.08161148 -0.10208728 -0.08545638 -0.025328258 0.060415257 -0.024404658 0.010304431 0.10529251 0.09203193 -0.08231452 -0.103273995 0.08749587 -0.05019112 0.0296232 -0.013576275 -0.11568724 -0.081954256 -0.032098517 -0.06620618 0.10043355 0.09445079 -0.042059317 0.09389543 0.07644897 0.08576145 0.09725226 -0.102067634 0.09750214 0.062994115 0.107525125 0.0006074046 0.08773215 0.096184336 -0.08485392 0.04973577 -0.09570152 0.094283335 0.101397574 0.1044418 -0.09128562 -0.10834871 0.10663791 -0.0477057 0.019869167 0.08088526 0.09843212 0.09560114 -0.10221547 -0.07772712 -0.10392821 -0.019577643 0.09613659 -0.088146865 0.059142206 0.09342622 0.10144264 -0.11093593 0.058349185 0.099197954 -0.062835805 -0.08467731 -0.07639285 0.09605935 0.015312924 0.09469869 0.06657633 -0.10778185 0.07241827 -0.059229054 -0.043971423 -0.083612196 -0.05851183 0.06598014 -0.09216416 -0.10281784 -0.0586813 -0.10824374 0.07599314 -0.05850444 -0.07305846 0.07642411 -0.069572985 0.09132238 -0.043482125 -0.016423235 0.097540945 0.114799485
ze -0.0039025298 0.0076525537 -0.013567949 0.025601598 0.14508885 0.010838658 -0.12373024 -0.10552189 -0.1254645 -0.099199764 -0.062744364 -0.07943007 0.04396378 -0.101754874 0.07056881 -0.00493828 0.042237096 -0.0448141 -0.12341631 -0.115605704 -0.06579155 0.04279766 -0.02566487 0.10119019 -0.08639736 0.10324752 -0.08602915 -0.047697738 -0.09383884 -0.05263431 0.05718171 0.016854264 -0.016883066 -0.06360005 0.11656914 -0.0457336 -0.066124775 0.02792981 -0.024810102 -0.09458736 -0.014223543 0.05409341 0.047526132 0.06358 0.0049134227 -0.0052919965 -0.10156971 -0.067130044 0.100161344 -0.10866089 -0.05322523 -0.09019267 0.044308428 0.027533038 -0.020849004 -0.13975137 -0.12516378 -0.008095849 -0.08907416 -0.009396231 -0.09981425 0.062387165 0.027939238 0.055277824 -0.054648504 0.028892027 0.069459915 -0.12222421 -0.00033128075 -0.07514388 0.11959273 -0.04417137 0.113317184 0.023943463 -0.082380876 -0.11552786 0.0115702255 0.043099236 -0.025795856 0.0019230356 -0.0943823 -0.09350864 0.08703438 -0.029913954 0.032402065 0.057242453 -0.02188144 0.07171499 0.106210604 -0.025136273 -0.062895894 0.08511312 0.092578605 0.10322418 0.07125733 -0.025267862 0.10068445 -0.05493038 -0.056902297 -0.09113642
